{"1.weight": [[-0.03296038508415222, -0.009000863879919052, -0.018651843070983887, 0.029805686324834824, -0.005969222169369459, 0.008938602171838284, 0.018345696851611137, 0.009948339313268661, -0.006098947487771511, 0.026629222556948662, -0.026040546596050262, -0.001170294708572328, 0.015512530691921711, 0.03121982514858246, -0.02093191258609295, 0.013632056303322315, -0.015942109748721123, -0.0329517126083374, 0.01567993499338627, 0.011681953445076942, -0.03026895597577095, 0.03233636915683746, 0.035635050386190414, -0.02638242579996586, 0.033182114362716675, 0.013873973861336708, -0.008444820530712605, 0.02581768110394478, -0.011753184720873833, 0.01498962752521038, 0.00826478935778141, 0.005952422507107258, 0.030734453350305557, 0.031009262427687645, -0.01820051670074463, -0.03413117304444313, 0.012235435657203197, 0.002605677582323551, 0.0017901677638292313, -0.0030250137206166983, 0.02678796835243702, 0.02007482387125492, 0.0030729654245078564, -0.03269555792212486, -0.030768100172281265, -0.032362498342990875, -0.010229500010609627, -0.002462601289153099, 0.012984135188162327, -0.02637145295739174, -0.01427086815237999, -0.0055238474160432816, 0.003656106535345316, 0.011886520311236382, 0.011470092460513115, 0.009954746812582016, 0.03347153589129448, -0.02542412467300892, -0.030335506424307823, -0.022268958389759064, 0.02319236472249031, -0.018463389948010445, 0.014100157655775547, -0.028779514133930206, -0.003284838516265154, -0.021500756964087486, 0.013685625977814198, -0.010939040221273899, -0.01200300082564354, -0.036264222115278244, 0.03369249030947685, -0.02488905005156994, -0.010896404273808002, -0.029391920194029808, -0.016113528981804848, -0.051771655678749084, -0.013918451964855194, -0.0030679453630000353, 0.01851768046617508, -0.0016053166473284364, -0.02523268200457096, -0.021352265030145645, -0.013513488695025444, -0.025788219645619392, 0.003025659592822194, -0.0053811585530638695, -0.029964487999677658, 0.020709356293082237, -0.016470085829496384, -0.019331051036715508, -0.004613154102116823, 0.00409264862537384, 0.015660418197512627, 0.05001257359981537, 0.011265852488577366, -0.0019172601168975234, 0.008998452685773373, -0.0001810756657505408, -0.0002036992518696934, 0.05996071547269821, 0.047849658876657486, 0.0241621732711792, 0.058249518275260925, 0.05044412240386009, 0.027025802060961723, -0.05676283687353134, -0.003053859807550907, 0.00024311812012456357, 0.026926225051283836, -0.031551532447338104, -0.01417007576674223, -0.016252825036644936, -0.013509772717952728, -0.007559913210570812, -0.00824215728789568, 0.03556007146835327, 0.030837154015898705, -0.002074155258014798, -0.022222254425287247, 0.04054032638669014, 0.03172667697072029, 0.07932471483945847, 0.049968987703323364, 0.07071471959352493, -0.04954084753990173, -0.04835499823093414, 0.03279145807027817, -0.004487617406994104, 0.06938592344522476, 0.027202976867556572, 0.01434578187763691, 0.0030082797165960073, 0.02967539057135582, -0.04718347266316414, -0.03346782177686691, -0.002532090526074171, -0.012682940810918808, 0.046989280730485916, 0.015596711076796055, 0.033263400197029114, 0.032440416514873505, 0.026431698352098465, -0.02431112341582775, 0.028150290250778198, 0.0018644749652594328, -0.0025321017019450665, -0.004409782588481903, 0.021514689549803734, -0.023196162655949593, 0.0377889983355999, 0.013890664093196392, 0.022628553211688995, -0.0018277239287272096, 0.020370876416563988, -0.02270479127764702, -0.1249946802854538, 0.057518571615219116, 0.11712713539600372, 0.02323477528989315, 0.05116165801882744, 0.02628829888999462, -0.0095774931833148, -0.09217770397663116, -0.05347638949751854, -0.036227356642484665, 0.0419134646654129, -0.025673674419522285, -0.033038657158613205, 0.018005112186074257, 0.011082974262535572, -0.021984729915857315, 0.009282886981964111, 0.020629234611988068, -0.0082083810120821, 0.0021711736917495728, -0.013047657907009125, -0.010692431591451168, 0.008726593106985092, 0.0211609099060297, -0.0631859228014946, 0.02801118604838848, -0.028729546815156937, 0.017226068302989006, 0.04289167374372482, 0.04991403594613075, 0.056048955768346786, 0.03661186993122101, 0.03609964996576309, 0.044541873037815094, -0.03846767544746399, -0.01967191882431507, -0.028220709413290024, -0.0036509926430881023, 0.026144225150346756, 0.01031459029763937, 0.00864563137292862, -0.03239291161298752, -0.028982892632484436, 0.02274642139673233, -0.014687452465295792, 0.054711733013391495, 0.07373321801424026, 0.004149456508457661, -0.04915005341172218, 0.03987983986735344, 0.015907542780041695, -0.021715788170695305, -0.02000359073281288, -0.03174978122115135, -0.051642175763845444, -0.029104089364409447, 0.010088264010846615, 0.020538469776511192, -0.0016006497899070382, -0.0567743219435215, -0.0032777052838355303, 0.00936812348663807, -0.05750248581171036, -0.01272505335509777, -0.06755205988883972, -0.012418985366821289, 0.007774595636874437, 0.018161768093705177, 0.024156779050827026, -0.016718665137887, -0.016231978312134743, -0.002303444081917405, -0.01716756634414196, 0.050025906413793564, 0.04686480760574341, 0.0220362339168787, 0.03875498101115227, -0.053006481379270554, 0.06650542467832565, 0.08175382763147354, 0.036904193460941315, -0.011158797889947891, 0.015586034394800663, 0.04287755489349365, -0.06649857014417648, -0.09274030476808548, 0.03235701099038124, -0.02624853514134884, 0.08189436048269272, 0.05787258967757225, -0.03490786626935005, 0.05320879444479942, -0.06642493605613708, -0.043454576283693314, 0.01648072339594364, -0.006895696744322777, -0.008885486982762814, -0.004129005596041679, -0.0038424243684858084, -0.014446480199694633, -0.02759590372443199, -0.009466596879065037, 0.014380082488059998, -0.004847680684179068, -0.030538441613316536, 0.04194522276520729, 0.053223878145217896, -0.013899055309593678, -0.019780928269028664, -0.0027540612500160933, 0.021631909534335136, 0.05801750347018242, -0.03142490237951279, -0.07299920916557312, -0.0235644169151783, -0.026842627674341202, -0.00809274148195982, -0.01816430501639843, 0.019616683945059776, 0.028361639007925987, -0.06298134475946426, -0.05260621756315231, 0.028418846428394318, 0.016128486022353172, -0.014583425596356392, 0.009135778993368149, 0.02145702764391899, -0.035130735486745834, -0.036843083798885345, 0.026688309386372566, 0.014858994632959366, 0.025438034906983376, 0.00665262620896101, -0.010975515469908714, -0.013776072300970554, -0.049125514924526215, -0.11028791218996048, -0.04033612459897995, -0.04986265301704407, -0.029090899974107742, -0.10746796429157257, -0.15452001988887787, -0.0680542066693306, -0.05193936824798584, -0.003860929049551487, -0.12388516217470169, -0.09628906100988388, -0.05058255419135094, -0.08292514085769653, -0.026530243456363678, -0.006791194900870323, 0.02918313629925251, -0.014760478399693966, -0.0050118290819227695, -0.005064130760729313, -0.023344097658991814, 0.011532946489751339, -0.023400800302624702, -0.03442499041557312, -0.024387359619140625, -0.10192620754241943, 0.02338492125272751, -0.06335052847862244, -0.04041769728064537, -0.042965907603502274, 0.05361868441104889, 0.07608973234891891, 0.02176029607653618, -0.009231671690940857, 0.001796765485778451, -0.07684800773859024, -0.0005677221924997866, -0.03244231641292572, -0.0777614638209343, -0.11602012813091278, -0.04145378619432449, -0.09072735905647278, -0.027033140882849693, -0.012154823169112206, -0.012123250402510166, -0.028513478115200996, 0.0034699442330747843, -0.015440263785421848, -0.02132568508386612, 4.66658420918975e-05, -0.04179385304450989, -0.07867347449064255, -0.11024308204650879, -0.0775761529803276, -0.03170536458492279, -0.09503602981567383, 0.007137158885598183, -0.01608184352517128, 0.035891976207494736, 0.12656506896018982, 0.1589851677417755, 0.16096852719783783, 0.05042547732591629, 0.0158532802015543, 0.01922999881207943, 0.02588258497416973, -0.03257186338305473, -0.025548020377755165, -0.07054620236158371, -0.0727534294128418, -0.04459846019744873, 0.02317618764936924, 0.008082844316959381, -0.01138201355934143, 0.028294431045651436, -0.021036474034190178, -0.018114689737558365, 0.029908185824751854, -0.09613832831382751, -0.0736427828669548, -0.06319943070411682, -0.014273133128881454, -0.032262347638607025, -0.03305349126458168, 0.034619130194187164, 0.14011523127555847, 0.09217008203268051, 0.237579807639122, 0.21213242411613464, 0.16143681108951569, 0.1514565497636795, 0.024709321558475494, 0.0027902727015316486, 0.009081625379621983, -0.022490641102194786, -0.024094466120004654, -0.08751746267080307, -0.03175388649106026, 0.031152039766311646, -0.01505553163588047, 0.002483631484210491, 0.028211593627929688, -0.0336688794195652, -0.018752925097942352, 0.02151196263730526, -0.03750384971499443, -0.03780876472592354, -0.06180023029446602, -0.006438947282731533, -0.022167960181832314, -0.056796006858348846, 0.038596779108047485, 0.03783532232046127, 0.03690145164728165, 0.004733971785753965, 0.009014209732413292, 0.13063649833202362, 0.16921892762184143, 0.12435267865657806, 0.07590214163064957, 0.07697483897209167, 0.009103051386773586, -0.01351792924106121, -0.06289813667535782, -0.02340860292315483, -0.011668659746646881, 0.031017843633890152, 0.049144644290208817, 0.028076376765966415, 0.018759706988930702, -0.027939021587371826, -0.010054090060293674, -0.01712929829955101, 0.0234427098184824, -0.03298313170671463, 0.004753374960273504, 0.006358747370541096, -0.026161810383200645, -0.002802470698952675, -0.018485747277736664, -0.03923323005437851, -0.09878556430339813, -0.17155489325523376, -0.03739619627594948, 0.09254278987646103, 0.1233687475323677, 0.15374475717544556, 0.08399961143732071, 0.07296384125947952, 0.0598757266998291, 0.048316750675439835, 0.04607420414686203, -0.020217688754200935, 0.0429786778986454, 0.04587658494710922, 0.03642360121011734, -0.005581547971814871, 0.011665217578411102, -0.0011582900770008564, -0.0009586152737028897, -0.029880959540605545, 0.015146728605031967, -0.03270890936255455, 0.0005252726841717958, 0.05247076228260994, 0.02512100152671337, -0.02318424917757511, -0.09414424747228622, -0.05873246490955353, -0.0973256379365921, -0.11956821382045746, -0.01781289279460907, -0.009511766955256462, -0.02968408726155758, 0.0650763288140297, 0.21652448177337646, 0.14369699358940125, 0.18181388080120087, 0.16000378131866455, 0.13513685762882233, 0.08810047805309296, 0.06582364439964294, 0.10765129327774048, 0.10904690623283386, 0.059210844337940216, 0.03509640321135521, 0.0016023559728637338, 0.027052776888012886, 0.014665665104985237, 0.08088400959968567, 0.041447822004556656, 0.010859846137464046, 0.07101328670978546, 0.053391262888908386, 0.029554441571235657, -0.06767278164625168, -0.1280069798231125, -0.14376045763492584, -0.11474717408418655, -0.02866012044250965, -0.09350066632032394, -0.0636054053902626, 0.07791787385940552, 0.1812855750322342, 0.1757926195859909, 0.15475326776504517, 0.13896557688713074, 0.15677352249622345, 0.06730469316244125, 0.06711962819099426, 0.06781906634569168, 0.04671982303261757, -0.02449130266904831, 0.028842216357588768, 0.02529686689376831, -0.014564513228833675, 0.008984345011413097, 0.044134680181741714, 0.12090371549129486, 0.06868652999401093, 0.11467257887125015, 0.019336581230163574, -0.009795761667191982, -0.034711647778749466, -0.07921057939529419, -0.11248736828565598, -0.12404631078243256, -0.050894055515527725, -0.08833654969930649, -0.12580949068069458, 0.08406637609004974, 0.12039624154567719, 0.04625369608402252, 0.13059380650520325, 0.08658263832330704, 0.07335898280143738, 0.02359629236161709, 0.1383417546749115, 0.07810860872268677, -0.017761198803782463, 0.028369711712002754, 0.03635958582162857, -0.015525504015386105, 0.010701261460781097, -0.006936268415302038, 0.06752313673496246, 0.06204124167561531, 0.08393809199333191, 0.04847363382577896, -0.07078918069601059, -0.06623033434152603, -0.010903194546699524, 0.05617456138134003, 0.09908784180879593, -0.1106073334813118, -0.04886564984917641, -0.11416750401258469, -0.0748695507645607, -0.034451622515916824, 0.04290104657411575, 0.02599969692528248, 0.046471551060676575, 0.0687447115778923, 0.11608821153640747, 0.09051559120416641, 0.08096253126859665, 0.04503235965967178, 0.029277263209223747, 0.038039591163396835, 0.0005985329044051468, 0.018210314214229584, -0.03152023255825043, -0.03441344574093819, -0.012489372864365578, 0.04262613505125046, 0.026712533086538315, 0.01837221533060074, -0.06736718863248825, 0.0208298247307539, -0.011758998036384583, -0.08045980334281921, 0.05847672000527382, -0.06373924762010574, -0.05213296040892601, -0.1189069077372551, -0.017517734318971634, -0.0452193021774292, -0.10260901600122452, 0.015223637223243713, 0.03177500516176224, 0.09028016030788422, 0.10702908039093018, 0.08419203013181686, 0.06949042528867722, -0.005238717887550592, 0.011623390018939972, 0.03076573647558689, 0.025343675166368484, 0.008865087293088436, 0.012834749184548855, -0.03650381416082382, 0.0030591010581701994, 0.042236633598804474, 0.05630931630730629, 0.021548490971326828, 0.06438697874546051, -0.0045320214703679085, -0.05284027010202408, -0.05280463770031929, 0.04132921248674393, -0.024565547704696655, 0.0171880554407835, 0.0372370146214962, -0.03946951404213905, -0.03749849274754524, -0.023660046979784966, 0.013837282545864582, 0.029741378501057625, 0.11789455264806747, 0.04459480941295624, 0.03146054595708847, 0.06795307993888855, 0.016873473301529884, 0.02366446889936924, -0.014625662937760353, 0.03389565646648407, 0.015936149284243584, -0.004630519077181816, 0.00475412467494607, -0.017362911254167557, 0.023410312831401825, -0.021208979189395905, -0.018133120611310005, -0.0066679189912974834, -0.03776414319872856, -0.017036499455571175, 0.005601356737315655, 0.03893604502081871, -0.116684190928936, 0.00481823505833745, -0.043809786438941956, -0.011094393208622932, -0.04810890555381775, -0.002279815496876836, -0.0940856859087944, -0.0037184692919254303, 0.05786396190524101, 0.01875227503478527, -0.01996990665793419, 0.05212726444005966, -0.0057294247671961784, -0.007266791071742773, 0.009838830679655075, 0.02655220963060856, -0.017810622230172157, 0.020673662424087524, 0.03264931961894035, 0.04513539746403694, 0.02983591891825199, 0.01477065309882164, -0.01674772799015045, -0.03334270790219307, -0.018341436982154846, -0.04727747291326523, 0.025326108559966087, 0.010752164758741856, -0.021573418751358986, -0.008232861757278442, -0.02918672002851963, -0.024944068863987923, -0.04505765065550804, -0.15040910243988037, -0.09945426136255264, -0.027505338191986084, -0.0065446943044662476, -0.0030819701496511698, 0.017313802614808083, 0.01702989637851715, 0.04318898916244507, -0.020160764455795288, -0.019523415714502335, 0.0036245330702513456, 0.01961866021156311, 0.021124329417943954, -0.004546386655420065, 0.017058147117495537, -0.011025283485651016, 0.024816639721393585, 0.005729958415031433, 0.02464251220226288, 0.007662747986614704, -0.017609935253858566, -0.07649797201156616, 0.0017315368168056011, -0.02128719724714756, -0.0898752510547638, -0.04456625506281853, -0.060095109045505524, -0.022140372544527054, -0.08842946588993073, -0.0737370029091835, -0.03610069677233696, -0.02396705187857151, -0.058707986027002335, -0.017485154792666435, 0.026828275993466377, -0.02190585993230343, -0.023985734209418297, -0.02471163310110569, 0.02780286967754364, 0.03455713391304016, 0.018098006024956703, 0.014386353082954884, -0.02063938044011593, 0.01319979690015316, 0.0016281434800475836, -0.0026848886627703905, -0.0011174256214872003, -0.026461027562618256, 0.02581118419766426, 0.11259523034095764, 0.06792426854372025, 0.11480998247861862, 0.004721452947705984, -0.0426570363342762, 0.028668949380517006, -0.04724887013435364, -0.03825448825955391, -0.04059009999036789, -0.05004217103123665, -0.04267004504799843, 0.011949950829148293, 0.010788863524794579, -0.01575564034283161, 0.006344401743263006, 0.029872188344597816, 0.021587643772363663, -0.014495262876152992, -0.013404161669313908, 0.009707029908895493, -0.013774489052593708, -0.012826628051698208, 0.018259916454553604, -0.03561069443821907, -0.00795652437955141, -0.020146897062659264, -0.043277330696582794, 0.01766863651573658, 0.02823261171579361, 0.005897197872400284, 0.018716566264629364, -0.003247326472774148, 0.016950588673353195, -0.032861173152923584, 0.0013418287271633744, -0.033146172761917114, -0.033278387039899826, -0.021292928606271744, -0.01869286596775055, -0.01307778712362051, -0.014743205159902573, 0.01583634316921234, -0.027067873626947403, 0.028672680258750916, -0.02103453129529953, 0.002585057867690921, -0.017609350383281708, -0.027916964143514633, -0.03432416170835495, -0.025442877784371376, 0.007689748890697956, 0.022318599745631218, -0.017941582947969437, -0.020491022616624832, -0.015860358253121376, 0.026710348203778267, -0.031411681324243546, -0.01951497420668602, -0.028917940333485603, -0.020066844299435616, -0.0045714788138866425, -0.027217039838433266, 0.02845234051346779, 0.013535670004785061, -0.03239889815449715, 0.01794085092842579, -0.009135091677308083, 0.007908180356025696, -0.034528862684965134, -0.03178808465600014, 0.011831284500658512, 0.0011127677280455828, -0.029880883172154427, -0.029780810698866844], [0.0051596807315945625, -0.01503779273480177, -0.015266002155840397, 0.0046382080763578415, 0.01186110358685255, -0.01477727759629488, 0.026705939322710037, 0.025314170867204666, 0.02639455907046795, -0.004998117685317993, 0.006792617961764336, 0.025981435552239418, 0.0029836951289325953, -0.03403593972325325, -0.015769360587000847, 0.01778530515730381, 0.009844299405813217, -0.0022327944170683622, -0.017511559650301933, -0.035025596618652344, 0.02775857038795948, -0.016760706901550293, 0.011417414993047714, 0.030714169144630432, -0.01356284599751234, 0.014850731939077377, -0.02288835495710373, 0.018774796277284622, -6.445391045417637e-05, 0.026054775342345238, -0.0010394029086455703, 0.0021345787681639194, 0.018627872690558434, -0.01016936358064413, 0.011936398223042488, -0.005913424305617809, 0.01479573454707861, -0.00976755190640688, 0.0038439107593148947, 0.021115656942129135, 0.01457669585943222, 0.0174074936658144, -0.02818986214697361, -0.035722874104976654, -0.014668026939034462, -0.0008098672842606902, -0.00793243758380413, 0.008916103281080723, -0.033643003553152084, 0.0008280578185804188, 0.019442325457930565, 0.007297946605831385, 0.004942319355905056, -0.02871018834412098, 0.008698872290551662, -0.03208708018064499, 0.013454531319439411, 0.017246656119823456, -0.004710538778454065, 0.00022578242351301014, 0.00619768351316452, -0.02184440940618515, -0.017874930053949356, 0.012587854638695717, -0.013701055198907852, 0.009613050147891045, -0.017750268802046776, -0.011462945491075516, -0.01883959211409092, 0.01126600056886673, -0.01161735225468874, 0.023178191855549812, -0.0002501396811567247, -0.009784606285393238, 0.02900802530348301, 0.03619908168911934, -0.015608939342200756, 0.01826365292072296, 0.021973177790641785, 0.009775426238775253, -0.03127416968345642, -0.027346160262823105, 0.013792396523058414, 0.02946922369301319, 0.00669115362688899, 0.02526744082570076, 0.016489490866661072, -0.007934646680951118, 0.01696864329278469, -0.027079306542873383, 0.029049044474959373, -0.004671092145144939, 0.023768233135342598, 0.012706494890153408, -0.02065245434641838, 0.02158682979643345, -0.03548644110560417, -0.012704112567007542, -0.02826034091413021, -0.056519147008657455, -0.012212435714900494, -0.03878403082489967, 0.013742228969931602, 0.05038446933031082, 0.06008465588092804, 0.0355566069483757, -0.012198138050734997, -0.00726756127551198, -0.013616842217743397, -0.001747685018926859, 0.030409248545765877, -0.0026367479003965855, 0.004743337631225586, 0.02374553680419922, 0.010939628817141056, 0.03345944732427597, 0.010781614109873772, -0.0176518727093935, -0.02382928505539894, 0.03088703379034996, -0.015820397064089775, 0.017820026725530624, -0.037444110959768295, -0.058532848954200745, -0.042542606592178345, -0.08823186159133911, -0.05730569735169411, -0.07874972373247147, -0.047402430325746536, -0.013070296496152878, 0.015652654692530632, -0.012577489949762821, 0.007313612382858992, 0.06970971077680588, -0.010274682193994522, 0.029428523033857346, 0.0333394855260849, -0.009706083685159683, -0.007580193225294352, -0.030611174181103706, 0.02006698213517666, -0.017799995839595795, -0.029175907373428345, 0.03225724771618843, -0.010882942005991936, -0.024207066744565964, 0.02175131067633629, 0.010923794470727444, 0.04344085976481438, 0.027149971574544907, 0.01747708208858967, -0.02881404012441635, -0.030046191066503525, -0.05857342109084129, 0.0671204924583435, -0.0652637705206871, 0.010732302442193031, 0.07469737529754639, 0.07220811396837234, 0.03097783960402012, 0.02707623690366745, -0.005943638738244772, 0.006084419786930084, 0.0270024836063385, 0.020557086914777756, -0.00136844371445477, -0.030069567263126373, -0.026512837037444115, 0.008707826025784016, 0.001389554818160832, 0.03491160273551941, 0.016221720725297928, -0.009603051468729973, 0.01416254322975874, 0.06296128779649734, 0.04930594563484192, 0.037474844604730606, -0.004514768254011869, -0.018547264859080315, -0.04643607139587402, -0.01632099412381649, -0.028385236859321594, -0.014290005899965763, 0.08298890292644501, 0.07330290973186493, 0.0947275161743164, 0.02543211542069912, 0.05089498311281204, 0.03219643235206604, -0.053059373050928116, 0.009679163806140423, 0.027506904676556587, 0.014939052984118462, -0.00999273732304573, 0.011991911567747593, -0.008596736937761307, 0.022653184831142426, 0.004678874742239714, -0.0011586177861317992, -0.006725544575601816, 0.016615495085716248, 0.05383720248937607, 0.020703714340925217, 0.07104646414518356, 0.0471891388297081, -0.010121759958565235, -0.005533701740205288, -0.004618526436388493, 0.025474678725004196, -0.01925748959183693, -0.0286683551967144, -0.0026764022186398506, 0.04515383020043373, 0.022889135405421257, -0.01930180750787258, -0.0282131414860487, -0.02067779004573822, -0.023114055395126343, 0.022591836750507355, 0.035687848925590515, -0.019738761708140373, -0.03483954817056656, -0.0244993157684803, 0.032454583793878555, 0.001901228097267449, -0.010324526578187943, -0.03138621896505356, 0.008690093643963337, 0.02384776994585991, 0.031859684735536575, 0.052181147038936615, 0.09568779170513153, -0.02276436612010002, -0.049735914915800095, -0.058677203953266144, 0.07474871724843979, 0.01699220947921276, -0.011772161349654198, -0.09104438871145248, -0.02621293254196644, 0.04284803941845894, 0.008830470032989979, -0.0038910144940018654, -0.019176309928297997, -0.01603264920413494, -0.029985222965478897, 0.025909898802638054, -0.023131217807531357, -0.033568114042282104, 0.021423695608973503, 0.036643464118242264, 0.015174448490142822, -0.012133009731769562, -0.00966390036046505, -0.0315682590007782, 0.027951199561357498, 0.03010188788175583, 0.0007409948739223182, 0.02892252430319786, -0.01053125225007534, -0.0044163730926811695, -0.01081827562302351, -0.1142653301358223, -0.07138572633266449, -0.07765791565179825, -0.11617770791053772, -0.06067958474159241, -0.09435298293828964, 0.048700861632823944, 0.015776028856635094, -0.02765362337231636, -0.013305587694048882, 0.04626557230949402, 0.04510796070098877, -0.016996560618281364, -0.04138798266649246, -0.0003479226434137672, 0.03896939009428024, 0.03245819732546806, 0.029748927801847458, 0.030155330896377563, 0.02321505732834339, 0.027460044249892235, -0.00818374752998352, -0.0006600423366762698, 0.03327341005206108, -0.02556055225431919, -0.015373404137790203, 0.04263906925916672, 0.03844159469008446, 0.000291209842544049, -0.05764372646808624, -0.09629768133163452, -0.03154126927256584, -0.018681442365050316, -0.021366870030760765, 0.02486618608236313, -0.03219195827841759, -0.0045303418301045895, -0.04071711748838425, -0.031251754611730576, -0.06398215889930725, -0.030274558812379837, -0.03083639219403267, 0.02229657955467701, 0.008788743056356907, 0.016098545864224434, 0.017494268715381622, -0.014013519510626793, -0.028080731630325317, 0.01980080083012581, 0.032418183982372284, 0.022578438743948936, 0.06711142510175705, 0.00032951432513073087, 0.014518245123326778, 0.08512458205223083, 0.005164469126611948, 0.04247727617621422, 0.024329468607902527, -0.016781004145741463, -0.1028873473405838, -0.07820525765419006, -0.06016193702816963, -0.10254646092653275, -0.17542016506195068, -0.08684784173965454, -0.10538140684366226, -0.0719401091337204, -0.02872350625693798, -0.0651603639125824, -0.035809677094221115, -0.029225146397948265, -0.02485683001577854, -0.007674832362681627, 0.029892142862081528, 0.003249316243454814, 0.03207762539386749, -0.014912424609065056, -0.00955015979707241, -0.04332461953163147, 0.023712897673249245, 0.04664689674973488, 0.054554760456085205, 0.0750693678855896, -0.01932116225361824, 0.02041684091091156, 0.011577118188142776, -0.021636618301272392, -0.043570250272750854, -0.0655212551355362, 0.021636856719851494, -0.05290794372558594, -0.18915903568267822, -0.14020617306232452, -0.08446458727121353, -0.11346185952425003, -0.03745018690824509, -0.03535973280668259, -0.07666729390621185, -0.023845847696065903, 0.019881796091794968, -0.006817988585680723, 0.021647484973073006, -0.00642587011680007, -0.025393366813659668, -0.011303199455142021, -0.0054936460219323635, -0.019797151908278465, 0.01684463396668434, 0.04719751700758934, 0.12238148599863052, 0.017445364966988564, -0.01295038964599371, -0.005904803983867168, 0.027744464576244354, -0.01961931586265564, 0.07072784751653671, 0.02996663749217987, 0.07573360949754715, 0.007217246573418379, -0.05174636468291283, -0.020447691902518272, -0.025785908102989197, -0.08516229689121246, -0.00823082122951746, -0.06738775968551636, -0.06540384888648987, 0.0002825238916557282, 0.013575981371104717, -0.03152702376246452, 0.009507136419415474, -0.006993206217885017, -0.017749791964888573, 0.031569886952638626, 0.010201158933341503, 0.038010843098163605, 0.10885956138372421, 0.07247624546289444, 0.052600543946027756, 0.06421227753162384, 0.030970746651291847, 0.05463141202926636, 0.0655919685959816, 0.035519760102033615, 0.04185926169157028, 0.06966762244701385, 0.11441931873559952, 0.03136309236288071, 0.09707155078649521, 0.03813410550355911, -0.026028119027614594, -0.03171422705054283, -0.058436498045921326, -0.03873840719461441, -0.011086429469287395, -0.021113067865371704, -0.00013835637946613133, -0.005335021764039993, -0.012476279400289059, 0.0012356762308627367, -0.006867146119475365, 0.02181127667427063, 0.029256343841552734, 0.00903391558676958, 0.08005020767450333, 0.08553467690944672, 0.05731775611639023, 0.049874402582645416, 0.0033327515702694654, 0.03744150325655937, 0.09316569566726685, 0.06500792503356934, 0.03168664872646332, 0.10225004702806473, 0.11658164858818054, 0.09267744421958923, 0.11292616277933121, 0.07884339243173599, -0.042837996035814285, -0.03080863133072853, -0.03239454701542854, 0.024621987715363503, 0.0419592410326004, -0.0026089688763022423, 0.017721595242619514, -0.031138811260461807, 0.008664969354867935, 0.011332022957503796, 0.01774618588387966, 0.023667149245738983, 0.012723320163786411, -0.027256475761532784, 0.05395295098423958, 0.07180166989564896, -0.0085845235735178, 0.004593907855451107, 0.01693808101117611, 0.025377238169312477, 0.07821354269981384, 0.09531377255916595, 0.06827412545681, 0.0009193707956001163, 0.12423302978277206, 0.1017572358250618, 0.13745437562465668, 0.09791114926338196, 0.06046249717473984, 0.01648206263780594, -0.00952950306236744, 0.03679300844669342, 0.028702054172754288, -0.004241386894136667, -0.012619171291589737, -0.032278843224048615, 0.017429446801543236, 0.027726182714104652, -0.013449099846184254, -0.023208221420645714, 0.005625509191304445, 0.03607010468840599, -0.01104434672743082, 0.03517948091030121, 0.02054770477116108, -0.024961501359939575, 0.029906218871474266, -0.045204587280750275, -0.03313298150897026, -0.025124240666627884, -0.040985945612192154, -0.07227497547864914, 0.016583465039730072, 0.12369803339242935, 0.10898343473672867, 0.10272639989852905, 0.06866559386253357, 0.03292836621403694, 0.04256213828921318, 0.057101331651210785, 0.02780289202928543, 0.016084425151348114, 0.004103252664208412, -0.012269855476915836, -0.019314665347337723, -0.0021456547547131777, -0.027785010635852814, -0.025060895830392838, 0.037691447883844376, 0.012699279002845287, 0.05920343101024628, -0.020759988576173782, -0.04010140523314476, -0.058210764080286026, -0.06844029575586319, -0.09200083464384079, -0.02498835138976574, -0.017867358401417732, 0.005216888152062893, -0.04694034531712532, 0.0039528533816337585, 0.04607211425900459, 0.09831001609563828, 0.05196879804134369, 0.06538143754005432, 0.09788762032985687, 0.05366791784763336, 0.0014619444264099002, -0.0039084781892597675, -0.0040304395370185375, -0.008834007196128368, -0.03461280092597008, -0.026496522128582, -0.0052778469398617744, 0.01748841255903244, -0.0019103634404018521, 0.023384075611829758, -0.002797024557366967, 0.006071111187338829, -0.04357307404279709, -0.06574731320142746, -0.004475197289139032, -0.029536347836256027, -0.027180837467312813, -0.08860732614994049, -0.049178969115018845, -0.04089096561074257, -0.0513460710644722, -0.04787418618798256, 0.038231853395700455, 0.09530239552259445, 0.07527922093868256, 0.03688470646739006, 0.03458860516548157, 0.011784372851252556, -0.06481987982988358, -0.008671089075505733, -0.008076642639935017, -0.03844304755330086, -0.008209063671529293, -0.026820417493581772, -0.020515715703368187, -0.012403782457113266, 0.007141337729990482, -0.03694911673665047, -0.025210587307810783, -0.026451475918293, -0.05855582654476166, -0.020296867936849594, 0.01378902792930603, -0.017861533910036087, -0.010119893588125706, -0.055247362703084946, -0.07230930030345917, -0.00016571809828747064, -0.03234535828232765, -0.04781825467944145, 0.02538548968732357, 0.0076326895505189896, 0.0521819069981575, -0.000275672908173874, 0.013089975342154503, -0.024202581495046616, -0.005744521506130695, -0.013708079233765602, -0.020895186811685562, -0.009581835940480232, 0.028568744659423828, -0.026576794683933258, -0.024250777438282967, -0.0334567166864872, 0.012018716894090176, -0.030529076233506203, -0.024647725746035576, -0.009670518338680267, -0.028225190937519073, 0.01430600881576538, -0.005921364761888981, -0.002703829202800989, -0.040187377482652664, -0.012670175172388554, -0.05067656561732292, 0.015758877620100975, 0.021657589823007584, 0.05770048126578331, 0.07244694977998734, 0.12038194388151169, -0.005135491956025362, -0.0480167418718338, -0.03532106429338455, 0.019470715895295143, 0.02364063635468483, -0.024765629321336746, 0.022095324471592903, 0.021771375089883804, -0.02732173539698124, 0.004550394136458635, 0.016059258952736855, -0.01813238114118576, -0.01701817288994789, -0.006225453689694405, -0.04420801252126694, -0.040417011827230453, -0.06207314133644104, -0.03800826892256737, -0.0775189995765686, -0.05695969611406326, -0.03050927259027958, -0.03521184250712395, -0.05820561945438385, -0.06643784791231155, -0.049349699169397354, 0.06908143311738968, 0.08996721357107162, 0.06221726909279823, -0.03181217983365059, 0.017532119527459145, 0.030985314399003983, -0.022835684940218925, -0.03066284768283367, -0.007978703826665878, 0.025857264176011086, -0.011917296797037125, 0.004015513230115175, 0.014913089573383331, -0.005599805619567633, -0.003350326092913747, -0.026986390352249146, 0.024339109659194946, 0.021830463781952858, -0.027930129319429398, -0.05520403012633324, 0.010018479079008102, -0.03816007822751999, -0.021355289965867996, -0.02832169644534588, -0.05593223124742508, -0.06608821451663971, -0.021050255745649338, 0.050313834100961685, 0.044122856110334396, 0.0727844312787056, 0.04012072831392288, 0.0066034914925694466, 0.0624367892742157, 0.0057825506664812565, -0.013710994273424149, -0.005968765821307898, 0.0030346550047397614, -0.004555061459541321, -0.0170424971729517, -0.0251325611025095, -0.028522441163659096, 0.005628879647701979, 0.02860295958817005, 0.005398067645728588, -0.004652282688766718, -0.0007250868948176503, -0.007629006169736385, -0.025679314509034157, 0.027558185160160065, -0.005226575303822756, 0.03644779697060585, 0.004053573589771986, 0.016316886991262436, 0.021669145673513412, 0.06131734326481819, 0.08709347993135452, 0.03273571655154228, 0.05794636160135269, 0.03471584990620613, -0.03622138127684593, -0.01636636070907116, 0.028116127476096153, -0.01677733100950718, -0.030916232615709305, -0.036500900983810425, -0.005270439200103283, -0.009467221796512604, 0.002242345130071044, -0.024409597739577293, -0.009966139681637287, -0.026758262887597084, -0.017852788791060448, 0.011533865705132484, -0.030088037252426147, -0.012261456809937954, 0.018277548253536224, -0.0300104022026062, 0.016421835869550705, -0.019267218187451363, 0.039322931319475174, 0.014919343404471874, 0.056731998920440674, 0.03931082412600517, -0.03948426619172096, 0.04250555858016014, -0.019341662526130676, -0.008973589166998863, 0.03319239988923073, -0.008581072092056274, -0.000342484621796757, -0.03386637195944786, -0.002474792068824172, 0.006232696119695902, -0.009231817908585072, -0.016929015517234802, -0.028757812455296516, -0.032772596925497055, -0.030320534482598305, 0.011912287212908268, 0.01132521964609623, 0.028745558112859726, 0.007052745204418898, -0.02260144241154194, -0.001078552333638072, 0.002750220475718379, 0.01529244240373373, 0.00987948477268219, 0.013602240011096, -0.030108574777841568, -0.0441790334880352, -0.03990776091814041, -0.07200613617897034, -0.053661126643419266, -0.026040080934762955, -0.027217423543334007, -0.025178546085953712, -0.014140867628157139, 0.008217096328735352, -0.02577613666653633, -0.004139159340411425, -0.008298203349113464, -0.029303930699825287, 0.020795632153749466, -0.02290073223412037, -0.005075676366686821, -0.0129540478810668, 0.016444450244307518, 0.0017633609240874648, 0.028451725840568542, 0.022727856412529945, 0.004913006909191608, 0.016109563410282135, -0.008301874622702599, 0.015528175048530102, -0.020837053656578064, -0.026650983840227127, -0.028801018372178078, 0.021840646862983704, -0.01382740493863821, -0.012644278816878796, 0.011863273568451405, -0.00622584531083703, 0.016602294519543648, 0.009980324655771255, 0.0023985037114471197, -0.019302135333418846, -0.02326800301671028, 0.032819975167512894, 0.009370444342494011, 0.009739544242620468, -0.013951204717159271, 0.01444630604237318, -0.01415436714887619], [0.020681390538811684, -0.008874565362930298, 0.031675249338150024, -0.0223242100328207, -0.01780897006392479, 0.019089043140411377, -0.020097307860851288, 0.011555212549865246, -0.010321634821593761, -0.000401416007662192, 0.008006053976714611, -0.010746483691036701, -0.028365226462483406, 0.00210128678008914, -0.031093064695596695, 0.03549277409911156, 0.0032962604891508818, 0.030591841787099838, 0.034536492079496384, 0.005382789298892021, 0.005488638766109943, -0.023874057456851006, -0.02039933204650879, -0.0004009604745078832, 0.024433720856904984, 0.019458137452602386, 0.015467772260308266, 0.0025111394934356213, 0.011195357888936996, 0.009422396309673786, -0.01881716586649418, 0.007234105374664068, 0.006571506150066853, 0.024325691163539886, -0.01741439662873745, -0.009791089221835136, 0.011455888859927654, 0.03361762315034866, -0.027011878788471222, 0.006821977905929089, -0.0008908959571272135, -0.005019089672714472, 0.02034524269402027, 0.006361675448715687, 0.01343003660440445, -0.031126325950026512, -0.02377334050834179, 0.03434266522526741, 0.03262893110513687, 0.013426918536424637, 0.032421279698610306, -0.02352713793516159, -0.022714169695973396, 0.02588360384106636, 0.005583925172686577, -0.025235380977392197, 0.014771373011171818, -0.02668721042573452, 0.029560886323451996, -0.016166197136044502, -0.029889708384871483, 0.03560807183384895, -0.031752683222293854, 0.028627002611756325, -0.021306632086634636, -0.002554121892899275, 0.02825663983821869, 0.02646869234740734, 0.013015338219702244, 0.03879213705658913, 0.013265924528241158, 0.0076624429784715176, -0.01891213096678257, -0.0446048267185688, -0.010342433117330074, -0.01982332393527031, 0.023995961993932724, -0.027528028935194016, 0.015183753333985806, -0.016977153718471527, 0.02409721352159977, 0.01082675065845251, 0.0014604799216613173, -0.007945789024233818, -0.0032188340555876493, 0.035119011998176575, -0.013223893009126186, -0.031560711562633514, 0.01770765893161297, 0.013421454466879368, 0.004601194057613611, 0.01993303745985031, -0.010117682628333569, -0.005638091824948788, -0.0035722556058317423, -0.010763189755380154, -0.006780034396797419, 0.027595575898885727, -0.013243341818451881, 0.0072740186005830765, -0.011696998961269855, 0.016975656151771545, 0.04661955684423447, 0.00038728126673959196, -0.01470175664871931, -0.018213117495179176, -0.009884404018521309, 0.024372491985559464, 0.030839597806334496, 0.006431246642023325, -0.012257377617061138, 0.0137455640360713, 0.021990973502397537, 0.007845576852560043, -0.034631602466106415, 0.011201419867575169, 0.01065843552350998, -0.011383987963199615, 0.017655275762081146, -0.010896393097937107, -0.013889599591493607, 0.015552185475826263, -0.046213891357183456, -0.015869924798607826, 0.06099966540932655, -0.005660767201334238, 0.028583288192749023, -0.04216726869344711, 0.05136751011013985, 0.16177251935005188, 0.09128056466579437, 0.034979816526174545, 0.014351226389408112, -0.040852878242731094, 3.873721288982779e-05, -0.018297487869858742, -0.003603467019274831, 0.0003039107541553676, -0.02681349590420723, -0.02561500295996666, 0.011588058434426785, -0.021109046414494514, 0.018914813175797462, 0.0195219237357378, -0.027653668075799942, -0.030239028856158257, -0.03447259962558746, -0.02689637988805771, -0.04368724673986435, -0.030165333300828934, -0.006436508614569902, 0.04651246964931488, -0.027885297313332558, 0.01922314241528511, 0.1285915970802307, 0.11135035753250122, 0.033699896186590195, 0.17605054378509521, 0.15403161942958832, 0.08370184153318405, 0.07895279675722122, 0.10730991512537003, 0.07315082103013992, -0.01337436307221651, -0.03774866834282875, -0.0050945524126291275, -0.020400911569595337, -0.03206619247794151, 0.020323362201452255, 0.032149240374565125, 0.006409486755728722, -0.010814174078404903, -0.02210887521505356, -0.05699300020933151, -0.05471257492899895, -0.07370440661907196, -0.0764928087592125, -0.0281507670879364, 0.05365157872438431, 0.06845241039991379, 0.04110405966639519, 0.02719268389046192, 0.16040532290935516, 0.19035683572292328, 0.08232876658439636, 0.1972155123949051, 0.19387349486351013, 0.16619546711444855, 0.12703871726989746, 0.1109175905585289, 0.08023177832365036, -0.04198221117258072, -0.01143848616629839, 0.006939481943845749, -0.015981990844011307, 0.003785007633268833, 0.00719750951975584, -0.02521764300763607, 0.01754947379231453, -0.03287036716938019, -0.03936590254306793, -0.045161012560129166, -0.059917472302913666, -0.09331659972667694, -0.050395164638757706, 0.044681426137685776, 0.06537160277366638, 0.13396117091178894, 0.0459512434899807, 0.14495635032653809, 0.08349332213401794, 0.15468131005764008, 0.22856011986732483, 0.136648491024971, 0.26284921169281006, 0.13080662488937378, 0.10503420978784561, 0.12038178741931915, 0.14191773533821106, 0.042377930134534836, -0.05906855687499046, 0.005028269253671169, 0.0017611553194001317, -0.0019227948505431414, 0.021973663941025734, 0.01941288635134697, -0.029915008693933487, -0.033796876668930054, -0.03656845912337303, -0.038283441215753555, -0.037882208824157715, -0.06395097821950912, 0.004175394773483276, 0.04210665449500084, 0.030305135995149612, 0.016471536830067635, 0.1602051705121994, 0.11990726739168167, 0.13471604883670807, 0.06132671982049942, 0.13695292174816132, 0.08036094903945923, 0.04432285949587822, 0.06418753415346146, 0.10549311339855194, 0.03534962236881256, 0.09149207174777985, 0.0530841238796711, -0.016951080411672592, -0.03224587067961693, 0.007635992020368576, -0.023881658911705017, -0.010368204675614834, -0.018088895827531815, 0.021898161619901657, -0.023840492591261864, -0.020570997148752213, -0.05476869270205498, -0.04017148166894913, -0.026823826134204865, 0.047225821763277054, 0.006289441604167223, -0.006127558648586273, -0.03211147338151932, -0.04087767004966736, 0.019215025007724762, -0.0279935784637928, -0.07720686495304108, -0.10300284624099731, -0.02518736943602562, 0.01923399232327938, -0.054230522364377975, 0.0602816678583622, 0.0326722152531147, 0.050740573555231094, 0.1396886557340622, 0.0837317556142807, 0.0479898527264595, -0.008173239417374134, -0.025078073143959045, 0.024727685377001762, 0.022260544821619987, 0.018219327554106712, 0.012024257332086563, -0.04006829857826233, -0.02697010524570942, -0.031743209809064865, -0.0526556633412838, 0.04087844863533974, 0.05293130874633789, 0.001691314042545855, 0.01470017060637474, -0.030250629410147667, -0.038157448172569275, -0.12646761536598206, -0.1306704431772232, -0.08833757042884827, -0.043963804841041565, 0.01833179034292698, -0.1050424799323082, 0.0033321520313620567, 0.06942212581634521, 0.0562731996178627, 0.14541883766651154, 0.06182501092553139, 0.04133937507867813, 0.027775466442108154, 0.03400595113635063, -0.009558035992085934, 0.021329225972294807, 0.001209635753184557, 0.026632919907569885, -0.004303759429603815, -0.031086185947060585, -0.056432630866765976, -0.03706885129213333, -0.050784457474946976, -0.008545483462512493, 0.05043289065361023, 0.05993656441569328, -0.03139559179544449, 0.07380100339651108, -0.0746852308511734, -0.1898038685321808, -0.21514050662517548, -0.12060071527957916, -0.09067627042531967, -0.08871634304523468, -0.057279322296381, 0.0554034560918808, 0.0013211258919909596, 0.03230088949203491, 0.08786310255527496, -0.021582238376140594, -0.011997127905488014, -0.02619951218366623, 0.017542855814099312, 0.03505678102374077, 0.00872926227748394, 0.016997458413243294, 0.006100474391132593, -0.10436967015266418, -0.008590401150286198, -0.00851303432136774, 0.12448569387197495, 0.0969947800040245, -0.018744098022580147, 0.004199224524199963, 0.07891832292079926, 0.03988378494977951, -0.06315919011831284, -0.0840262696146965, -0.14680100977420807, -0.0579780675470829, -0.0696650892496109, -0.07213537395000458, -0.07926322519779205, -0.014445861801505089, 0.003915195353329182, 0.020876426249742508, 0.06490940600633621, 0.01877533830702305, 0.01695888675749302, 0.0301063135266304, 0.021983163431286812, 0.0037126285023987293, 0.020054087042808533, 0.04829855263233185, -0.025620467960834503, -0.039884719997644424, 0.03445456922054291, -0.0028508291579782963, -0.002585762646049261, 0.08735090494155884, 0.029766574501991272, 0.011851447634398937, 0.05095129832625389, 0.07292783260345459, -0.012035046704113483, 0.013097967952489853, -0.18413518369197845, -0.11459218710660934, -0.0781722143292427, -0.04452739283442497, -0.010618161410093307, -0.06511546671390533, -0.03812061622738838, -0.029231484979391098, 0.04351673275232315, 0.01637006737291813, -0.004226568154990673, 0.02343018539249897, 0.004124015104025602, 0.007296174764633179, -0.030329696834087372, -0.02998596429824829, 0.0033491284120827913, 0.009165558032691479, 0.03395254164934158, 0.03564823791384697, -0.09395886957645416, 0.00020085496362298727, -0.005556275136768818, 0.027648547664284706, 0.04656144976615906, -0.017074881121516228, 0.11289474368095398, 0.007861722260713577, -0.1608271449804306, -0.10791132599115372, -0.14709685742855072, -0.18187905848026276, -0.023394042626023293, -0.011202831752598286, -0.09903471171855927, -0.05402475222945213, 0.05341790243983269, 0.03316469490528107, -0.02552339807152748, 0.021205781027674675, 0.017556000500917435, -0.011500613763928413, -0.0350654162466526, -0.008988701738417149, -0.018676623702049255, 0.01777038909494877, 0.0602002777159214, 0.06734075397253036, -0.04881557822227478, 0.029503095895051956, 0.0029494641348719597, -0.00046105319052003324, 0.03321579098701477, -0.04753361642360687, -0.004348312970250845, 0.015403746627271175, -0.03175661712884903, -0.07267653942108154, -0.08253805339336395, -0.1460297554731369, -0.04279598221182823, -0.008527222089469433, -0.07776106148958206, 0.009662458673119545, 0.007056869100779295, -0.007617337163537741, -0.02794536203145981, 0.025566341355443, -0.013205687515437603, 0.0035548394080251455, 0.012519508600234985, -0.029474357143044472, 0.0007286026375368237, 0.0006428486085496843, 0.01959066465497017, -0.013528192415833473, 0.011534634977579117, 0.0674259290099144, 0.06894900649785995, 0.024801146239042282, 0.02860153280198574, -0.002680439967662096, 0.01928275264799595, -0.0029354533180594444, 0.03115425631403923, 0.025047626346349716, -0.12094420939683914, -0.08281923830509186, -0.003344217548146844, -0.006734151393175125, -0.030780838802456856, -0.02315782755613327, 0.003931455779820681, -0.04077065363526344, -0.005877474322915077, -0.025162408128380775, -0.03495307266712189, -0.03156004846096039, -0.009130710735917091, 0.025086620822548866, 0.062154725193977356, 0.022478286176919937, 0.04331987351179123, -0.032591648399829865, 0.013029913417994976, 0.030244875699281693, 0.026137277483940125, -0.06739721447229385, -0.04414629191160202, -0.006144229788333178, 0.0735882818698883, -0.048375505954027176, -0.029409989714622498, 0.034634727984666824, -0.04272110015153885, -0.020543932914733887, 0.029946576803922653, -0.007892380468547344, 0.045038532465696335, -0.00830059964209795, -0.03994496911764145, 0.01675010286271572, -0.03144047409296036, 0.023086903616786003, -0.03334257751703262, -0.0017374776070937514, 0.0022283645812422037, 0.01708175055682659, 0.0020448914729058743, -0.02082626335322857, 0.006849752273410559, -0.033212725073099136, 0.00259784166701138, 0.0032883835956454277, -0.10987808555364609, -0.16779015958309174, -0.131437748670578, -0.1749640703201294, -0.1175050139427185, 0.04172603040933609, 0.10719864815473557, 0.05644244700670242, 0.10037391632795334, 0.014777544885873795, 0.03926699608564377, 0.025670789182186127, 0.09661181271076202, 0.03310311585664749, 0.00033598966547288, -0.010490501299500465, 0.01826287992298603, 0.03475525230169296, 0.004315159283578396, 0.002891266020014882, -0.02103821188211441, -0.028371721506118774, 0.04474923014640808, 0.07171303033828735, 0.04564203321933746, 0.008861742913722992, 0.057283930480480194, -0.07168269902467728, -0.17694920301437378, -0.2339296042919159, -0.14073853194713593, -0.13357925415039062, -0.0728139728307724, -0.010570033453404903, 0.06492152065038681, 0.14188489317893982, 0.09811124950647354, 0.05054237321019173, 0.0753021314740181, 0.01802634820342064, 0.06983120739459991, -0.045145999640226364, -0.06972157210111618, -0.038560181856155396, -0.0058734482154250145, 0.03571319952607155, 0.02557563968002796, 0.0031805778853595257, -0.031365931034088135, 0.021223388612270355, 0.06002984568476677, 0.10873429477214813, 0.05535762757062912, -0.004556471016258001, -0.022977333515882492, -0.06108523905277252, -0.09352140128612518, -0.05389630049467087, -0.06475017964839935, -0.0782008171081543, -0.07686243951320648, 0.08574352413415909, 0.07785694301128387, 0.12860551476478577, 0.021213140338659286, 0.052320446819067, -0.023813525214791298, -0.06373473256826401, -0.012857597321271896, -0.052606601268053055, -0.054465606808662415, -0.040888767689466476, -0.028021231293678284, -0.009345545433461666, -0.020261695608496666, -0.02529456466436386, 0.016142461448907852, 0.026651503518223763, 0.0057876333594322205, 0.05171918869018555, 0.06079636886715889, 0.03528802469372749, 0.03758610412478447, -7.321144948946312e-05, -0.02551482617855072, 0.009061272256076336, -0.0709330290555954, -0.029235143214464188, -0.06334782391786575, 0.03314116224646568, -0.021328255534172058, -0.11120554059743881, -0.05832761898636818, -0.031526368111371994, -0.10338068753480911, -0.09231731295585632, -0.016348274424672127, -0.0057770186103880405, 0.0027024613227695227, -0.02836727909743786, -0.009220694191753864, -0.009518635459244251, 0.00835465919226408, 0.03175627067685127, 0.02016630209982395, 0.030883459374308586, 0.011044677346944809, 0.016519811004400253, 0.08134885877370834, 0.05959077924489975, 0.1039765253663063, 0.11877904087305069, 0.103257916867733, 0.10780278593301773, -0.004151824861764908, 0.02250276692211628, -0.016226444393396378, -0.001436415477655828, -0.11579866707324982, -0.06682317703962326, -0.06314671039581299, -0.02067752741277218, -0.09178803116083145, -0.0877239778637886, 0.013891835696995258, 0.03509669378399849, 0.023788392543792725, -0.012627830728888512, -0.029573580250144005, -0.029494693502783775, 0.0003780595143325627, 0.0019733395893126726, 0.025048639625310898, -0.004278177861124277, 0.0068573616445064545, 0.030982790514826775, 0.08465675264596939, 0.11619104444980621, 0.10686321556568146, 0.16909317672252655, 0.1621001958847046, 0.14390888810157776, 0.07027237862348557, 0.07488149404525757, -0.009461973793804646, -0.005173616576939821, 0.08629647642374039, 0.04342157393693924, -0.07630658149719238, -0.05146117880940437, 0.0035587549209594727, -0.036058660596609116, 0.01298197079449892, 0.005936997476965189, -0.006677874363958836, 0.00016883198986761272, 0.010301290079951286, 0.022305281832814217, 0.0020536610390990973, -0.02895566076040268, 0.022518740966916084, -0.03175559267401695, -0.03218189254403114, 0.005640634335577488, 0.025055576115846634, 0.032167401164770126, 0.09147953987121582, 0.16405345499515533, 0.11227278411388397, 0.08106427639722824, 0.22917687892913818, 0.16022884845733643, -0.010380291379988194, 0.03031829372048378, 0.0941108912229538, 0.030984139069914818, 0.06284566968679428, 0.04543672874569893, 0.02667616307735443, 0.027269048616290092, -0.008312204852700233, -0.0036146098282188177, 0.0018245413666591048, -0.0018282640958204865, -0.014060300774872303, -0.0012341397814452648, 0.011030456982553005, -0.031655073165893555, -0.0007992032915353775, 0.03364769369363785, -0.01289283111691475, -0.0026181931607425213, 0.019610416144132614, 0.03340229019522667, 0.01835727132856846, 0.019783364608883858, 0.026213953271508217, 0.0004907712573185563, -0.00828026607632637, 0.015480195172131062, -0.06954724341630936, 0.09921281784772873, 0.025928525254130363, 0.02103545144200325, 0.06421378999948502, 0.12632036209106445, 0.028797244653105736, -0.0030796746723353863, -0.01762327179312706, 0.012782957404851913, -0.0018754160264506936, 0.015950152650475502, 0.01688074879348278, -0.010039998218417168, 0.02396499365568161, -0.007912610657513142, -0.007212098687887192, -0.03395878151059151, -0.02248656377196312, -0.019993029534816742, -0.024432074278593063, 0.022119909524917603, 0.005359439179301262, -0.04341743141412735, 0.0015414991648867726, 0.029286252334713936, 0.049521639943122864, -0.013726113364100456, -0.002948030363768339, 0.0018777293153107166, 0.04998842999339104, -0.03966361656785011, 0.010052588768303394, 0.031917449086904526, 0.008661847561597824, -0.023346640169620514, -0.03249651938676834, -0.014851069077849388, 0.020598173141479492, -0.031540676951408386, -0.004495637957006693, 0.003065407508984208, -0.008252370171248913, 0.03176974877715111, 0.016097594052553177, -0.007241768762469292, 0.03553361818194389, 0.0187610425055027, -0.03020486794412136, 0.035227708518505096, 0.013946812599897385, -0.023818794637918472, 0.035474952310323715, 0.033205725252628326, -0.02794676460325718, 0.00014392842422239482, 0.013533216901123524, 0.013869569636881351, -0.0009995303116738796, -0.010979203507304192, 0.004640638362616301, -0.024004891514778137, -0.03016102872788906, 0.0010954552562907338, -0.03263052552938461, 0.025256698951125145, -0.024555062875151634, 0.016217827796936035, -0.023453665897250175, -0.028100624680519104], [-0.0193859301507473, -0.02329353056848049, 0.0240031611174345, 0.013295868411660194, 0.033290863037109375, 0.01670297235250473, -0.031175920739769936, -0.01117828581482172, 0.01525634154677391, 0.024774428457021713, 0.014967544004321098, -0.025753341615200043, -0.010530596598982811, -0.012666025198996067, 0.03494894877076149, -0.031410228461027145, -0.03454723209142685, -0.002625555032864213, -0.026697568595409393, 0.006185536272823811, -0.018995489925146103, 0.02735784836113453, -0.009179762564599514, 0.0040690600872039795, 0.029922571033239365, -0.03129657357931137, -0.023600826039910316, 0.033514101058244705, -0.014620210975408554, -0.02758195623755455, -0.021767403930425644, 0.004953260999172926, -0.02395024709403515, -0.011142613366246223, -0.034558337181806564, -0.02508598379790783, 0.013151878491044044, -0.016557205468416214, 0.014420372433960438, -0.030580764636397362, -0.016788329929113388, 0.019079890102148056, 0.03486057370901108, 0.025498639792203903, -0.012630131095647812, -0.030358539894223213, -0.012848968617618084, -0.013117341324687004, 0.03191923350095749, -0.02311977930366993, 0.031552694737911224, 0.00844017043709755, -0.01064485777169466, 0.008420144207775593, 0.007442006375640631, 0.017772573977708817, 0.03383319079875946, -0.020111573860049248, 0.011701812036335468, 0.023677874356508255, -0.022265780717134476, -0.03194025531411171, 0.005946694873273373, -0.013766506686806679, -0.011435514315962791, 0.012699042446911335, 0.0006265225820243359, -0.004510636441409588, -0.02527913637459278, 0.009887288324534893, 0.02825736440718174, 0.008386919274926186, 0.03945146128535271, 0.011701112613081932, 0.015000510960817337, 0.0197028536349535, 0.04048187658190727, 0.043922509998083115, 0.01315540261566639, 0.03019709698855877, 0.007279540877789259, 0.02067471481859684, -0.011118919588625431, 0.01979687064886093, 0.0012392487842589617, -0.026312990114092827, -0.03333219140768051, -0.031922560185194016, 0.03317248448729515, -0.025672316551208496, -0.015192052349448204, -0.018870960921049118, 0.020416518673300743, -0.0065146395936608315, 0.0067988550290465355, -0.06674113124608994, -0.07970504462718964, -0.05624544620513916, -0.00620409706607461, 0.08765442669391632, 0.05076077952980995, 0.06632557511329651, 0.05504975840449333, 0.07014275342226028, 0.020344272255897522, 0.020055027678608894, -0.030805764719843864, -0.02886972390115261, 0.024779949337244034, -0.025338200852274895, 0.01658298447728157, -0.0017195941181853414, 0.015689127147197723, -0.031801771372556686, -0.020007411018013954, 0.02040088176727295, -0.014259615913033485, 0.018082279711961746, -0.00694239279255271, 0.004392181523144245, -0.02305440790951252, -0.0025918560568243265, -0.015159673988819122, -0.07122787088155746, -0.08069130778312683, -0.06600305438041687, 0.004510150291025639, 0.04495231434702873, 0.12873879075050354, 0.12836015224456787, 0.12210115790367126, 0.023011360317468643, 0.009590277448296547, 0.023254893720149994, -0.016185423359274864, -0.04473820701241493, -0.06683143973350525, -0.04016401246190071, -0.005629982333630323, 0.008756430819630623, 0.019270330667495728, 0.007176459301263094, 0.009810399264097214, -0.020502474159002304, -0.03485319763422012, -0.03145236521959305, -0.0706767812371254, -0.024294693022966385, -0.06303407996892929, -0.0391874834895134, -0.07755909115076065, -0.07892735302448273, -0.07161729037761688, -0.03852769732475281, 0.014221754856407642, 0.09278953820466995, 0.06646522879600525, 0.14401791989803314, 0.22148533165454865, 0.046680424362421036, 0.017673945054411888, 0.015514117665588856, -0.03187720850110054, -0.032768458127975464, -0.005956294015049934, -0.04978713020682335, -0.00957603007555008, 0.033795181661844254, 0.01578623056411743, -0.02558474987745285, -0.024528274312615395, -0.030825432389974594, 0.0008035202627070248, -0.035699035972356796, -0.03881228342652321, -0.015065605752170086, -0.05320565775036812, -0.08355709910392761, -0.07948105037212372, -0.0685957744717598, 0.04197768494486809, 0.09359072893857956, 0.1473425179719925, 0.16849657893180847, 0.152629554271698, 0.1294643133878708, 0.05998392403125763, 0.10482138395309448, -0.008238452486693859, -0.010510570369660854, -0.03452380746603012, -0.05624778941273689, 0.0018358933739364147, 0.00788483489304781, -0.0016189130255952477, -0.0005790861905552447, 0.0145601537078619, -0.005751032382249832, -0.02128760516643524, -0.023938443511724472, -0.031028935685753822, -0.019780224189162254, -0.05163014680147171, 0.01568688452243805, -0.07935040444135666, -0.04766916111111641, -0.08131922036409378, -0.06315895915031433, 0.011093753390014172, 0.09310756623744965, 0.1953871101140976, 0.2130427360534668, 0.08708932995796204, 0.06583140045404434, 0.09836787730455399, 0.004798934329301119, 0.10909776389598846, 0.03981827199459076, 0.018237948417663574, 0.009214840829372406, -0.036150556057691574, 0.01014083344489336, -0.02248566597700119, 0.00983536709100008, 0.024402940645813942, 0.011370311491191387, 0.016579585149884224, 0.0182881411164999, 0.003971763886511326, -0.016740702092647552, -0.036528464406728745, -0.05782715231180191, -0.03951343894004822, -0.10738608241081238, -0.0836045891046524, -0.012815387919545174, 0.08635921031236649, 0.08848454058170319, 0.012796535156667233, 0.0035904354881495237, 0.02977021597325802, -0.07742630690336227, -0.09138084203004837, 0.02480601891875267, 0.022816963493824005, 0.03145086392760277, -0.004043878056108952, 0.007550379261374474, 0.010834502056241035, -0.039553821086883545, 0.01616627164185047, -0.00961847510188818, -0.009464110247790813, -0.005973204970359802, 0.01081076730042696, -0.0063949706964194775, -0.024642644450068474, 0.005317663308233023, -0.029531223699450493, -0.045046888291835785, -0.05019586160778999, -0.09321954101324081, -0.03527728095650673, -0.03722100704908371, 0.06846579164266586, -0.044274069368839264, -0.0944160595536232, -0.11999977380037308, -0.16981428861618042, -0.2163197249174118, -0.0963330864906311, -0.04237551614642143, -0.031994957476854324, -0.059867583215236664, -0.05436676740646362, -0.008758503012359142, 0.003497340949252248, -0.009339109063148499, 0.022171109914779663, 0.030054254457354546, -0.009751245379447937, -0.0008389415452256799, -0.014305617660284042, -0.024199718609452248, -0.03574477508664131, -0.03588813170790672, -0.0023476711940020323, 0.022409921512007713, -0.0708378255367279, 0.001133582554757595, -0.03829645365476608, -0.06937190145254135, -0.0030190739780664444, -0.048860955983400345, -0.1699565201997757, -0.11632620543241501, -0.18827654421329498, -0.10960003733634949, -0.06978572905063629, -0.1283014565706253, -0.06100190803408623, -0.04765811190009117, -0.04986335337162018, -0.017934560775756836, -0.036296699196100235, -0.02162422426044941, -0.03686124458909035, -0.025000154972076416, 0.006671772338449955, 0.0038174199871718884, 0.014201990328729153, -0.00983232818543911, 0.0077364565804600716, -0.046083223074674606, -0.03031683713197708, -0.0018024268792942166, -0.06098246946930885, -0.006868882104754448, -0.026654833927750587, -0.011210325174033642, 0.0650104433298111, 0.035330355167388916, -0.09155067056417465, -0.16059984266757965, -0.16447031497955322, -0.11649046838283539, -0.14976146817207336, -0.1343533992767334, -0.09108494967222214, 0.010494884103536606, -0.0457705482840538, -0.015865720808506012, -0.03293757885694504, 0.008373651653528214, 0.01670069247484207, 0.02234462834894657, -0.006882307585328817, 0.018977109342813492, -0.004109494388103485, -0.028180096298456192, 0.009406344965100288, 0.015693282708525658, 0.03294763341546059, -0.03149636834859848, -0.05478169023990631, 0.025820240378379822, 0.016212284564971924, 0.07127408683300018, 0.0831216424703598, -0.01092409435659647, -0.0498906709253788, -0.09314226359128952, -0.09619209170341492, -0.11109697073698044, -0.0651431754231453, -0.13140152394771576, -0.11933432519435883, -0.06463227421045303, -0.017764735966920853, -0.003699947614222765, -0.005324703641235828, -0.04364396259188652, 0.013369455002248287, -0.014474881812930107, -0.011434321291744709, 0.03368133306503296, -0.015668999403715134, -0.028291845694184303, 0.03659277409315109, -0.0049689896404743195, -0.025670882314443588, -0.04838727042078972, -0.07552189379930496, 0.028245722874999046, 0.018226083368062973, 0.013445020653307438, 0.01963600516319275, -0.02336524799466133, -0.053401924669742584, -0.13659721612930298, -0.12913735210895538, -0.11798978596925735, -0.059643570333719254, -0.0641154870390892, -0.12986254692077637, -0.08996718376874924, -0.0363025888800621, 0.0035821320489048958, 0.008661357685923576, 0.02217106521129608, 0.02422008290886879, 0.03022916615009308, -0.007593721617013216, 0.02373206801712513, 0.020255861803889275, -0.028098775073885918, 0.022197138518095016, -0.00882762111723423, -0.08398209512233734, -0.012873785570263863, -0.08971453458070755, 0.023873785510659218, 0.010872243903577328, 0.06961316615343094, 0.045118894428014755, 0.001584465499036014, -0.11504048109054565, -0.08494751155376434, -0.057882796972990036, -0.10294627398252487, 0.03997791185975075, -0.1192728653550148, -0.048549834638834, -0.013001526705920696, -0.02997833676636219, 0.003417939879000187, 0.049906857311725616, -0.007075801957398653, -0.027435455471277237, 0.0032884525135159492, -0.006861290894448757, 0.00663677416741848, 0.007568817585706711, -0.0006595932645723224, 0.03322560712695122, 0.0033578367438167334, -0.06858474761247635, -0.03982684761285782, -0.04217221215367317, -0.04602203890681267, -0.0015051697846502066, 0.095431387424469, 0.08614059537649155, -0.03560064360499382, -0.058913104236125946, -0.0940239205956459, -0.05075869709253311, -0.05802172049880028, -0.030350923538208008, -0.049413878470659256, 0.013062412850558758, 0.018748613074421883, -0.03361476957798004, 0.03344081714749336, 0.03958088532090187, 0.01032965537160635, -0.039172057062387466, 0.011733959428966045, -0.028304556384682655, 0.013142515905201435, 0.030915891751646996, 0.010611768811941147, 0.0012073724064975977, 0.014372101053595543, -0.11411936581134796, -0.0768669992685318, 0.008157450705766678, -0.020816173404455185, 0.05055706575512886, 0.12998433411121368, 0.09300709515810013, -0.04639802500605583, -0.09216959029436111, -0.02659403532743454, -0.0070585766807198524, -0.021374637261033058, -0.08766363561153412, -0.033524706959724426, -0.021986665204167366, -0.04545466974377632, -0.0628187283873558, -0.058066222816705704, -0.01436088141053915, -0.006572331767529249, -0.04504361003637314, -0.026496753096580505, -0.02772904932498932, -0.021901810541749, 0.004846801050007343, 0.009609665721654892, -0.034678880125284195, -0.018970543518662453, -0.06383368372917175, -0.026526762172579765, -0.04847366735339165, -0.08903083205223083, 0.10636355727910995, 0.07149843871593475, 0.0040242671966552734, -0.041852448135614395, -0.05403066426515579, -0.06965076923370361, -0.04551536962389946, -0.09663604199886322, -0.018961599096655846, 4.177036680630408e-05, -0.0025158696807920933, 0.026324346661567688, 0.028133956715464592, 0.012445234693586826, -0.04760337248444557, -0.03162423148751259, 0.011852869763970375, -0.016361908987164497, 0.021990753710269928, 0.011141663417220116, 0.0021972532849758863, -0.005389008671045303, -0.03749311715364456, -0.08579438179731369, -0.07655380666255951, 0.005070107523351908, 0.023078927770256996, 0.12357097119092941, 0.01586809940636158, -0.027762360870838165, 0.03037782944738865, -0.04569104686379433, -0.1410110890865326, -0.07337488234043121, -0.03241930156946182, -0.06722292304039001, -0.04006972908973694, 0.006027914583683014, -0.03349445387721062, 0.03523263335227966, 0.02717735432088375, -0.008115705102682114, -0.0855417400598526, 0.01866399496793747, -0.027697091922163963, -0.022166777402162552, -0.021264545619487762, 0.0020961014088243246, 0.03170833736658096, -0.030687909573316574, -0.02139638364315033, -0.12826955318450928, -0.08004781603813171, -0.004565994720906019, 0.02784201130270958, 0.09843196719884872, 0.054521892219781876, 0.11832774430513382, 0.07228069007396698, -0.0670272558927536, -0.10165297985076904, -0.07249229401350021, -0.052405886352062225, -0.05459427088499069, -0.030045323073863983, -0.017980244010686874, 0.03860532119870186, 0.06938301771879196, 0.05838923901319504, -0.014983088709414005, -0.0224174652248621, -0.03196607157588005, -0.011070515029132366, -0.006699846126139164, -0.02630871720612049, 0.0009080800809897482, 0.026454303413629532, 0.016231628134846687, -0.05590251088142395, -0.023857221007347107, -0.06768802553415298, -0.04453171417117119, -0.04255227744579315, 0.10842284560203552, 0.03955783694982529, 0.1417839229106903, 0.13218824565410614, -0.004060110542923212, 0.003771878546103835, 0.03133324161171913, -0.12698182463645935, -0.07743357867002487, -0.07046833634376526, 0.017432870343327522, 0.020516667515039444, 0.0621066689491272, 0.05802006274461746, 0.01453507598489523, 0.0024034311063587666, 0.01593969576060772, -0.025280185043811798, 0.00023000787768978626, 0.012279660440981388, -0.0026577510870993137, -0.005780596751719713, 0.024716781452298164, -0.013578198850154877, -0.030668629333376884, -0.033086780458688736, -0.05372999608516693, 0.002048338996246457, 0.033625632524490356, 0.027116041630506516, 0.1124083548784256, 0.12964586913585663, 0.15933549404144287, 0.17326942086219788, 0.1492786705493927, 0.013794361613690853, -0.03217353671789169, -0.012533124536275864, 0.01950944773852825, 0.09959398210048676, 0.04262572526931763, 0.012582017108798027, 0.009958487935364246, -0.018260924145579338, 0.024276837706565857, 0.029789090156555176, -0.004626552574336529, 0.023754552006721497, 0.02312186174094677, 0.02454856038093567, -0.014543449506163597, 0.0045298561453819275, 0.011165432631969452, 0.03528513386845589, 0.021064290776848793, 0.029736192896962166, 0.03949718177318573, 0.056113697588443756, 0.05903465673327446, 0.0823206827044487, 0.038576528429985046, 0.038765501230955124, 0.21048668026924133, 0.09271615743637085, 0.020907802507281303, 0.00028742451104335487, 0.032263219356536865, 0.038399260491132736, 0.0558207742869854, -0.025630250573158264, -0.013804401271045208, -0.0337270125746727, -0.03087114356458187, -0.03474967181682587, -0.003228649962693453, -0.017425108700990677, -0.0027563786134123802, -0.0221584253013134, -0.004565298557281494, 0.029097918421030045, -0.03331790119409561, 0.0021556182764470577, 0.022422652691602707, 0.020108848810195923, 0.03671455755829811, 0.046543389558792114, 0.040343817323446274, 0.06699054688215256, 0.08117076009511948, 0.08821316063404083, 0.08055935055017471, 0.022531453520059586, 0.007564727216959, -0.023735400289297104, 0.06275852769613266, 0.05092119425535202, -0.018907474353909492, 0.023805636912584305, 0.0023368350230157375, 0.00034615013282746077, -0.03479884937405586, -0.017931049689650536, 0.008519381284713745, 0.029798228293657303, 0.01392638310790062, 0.004399167373776436, 0.020059859380126, -0.008822426199913025, -0.025844644755125046, 0.03112654760479927, -0.025433730334043503, -0.059288911521434784, 0.012866863049566746, 0.013319003395736217, 0.011320661753416061, 0.0907219797372818, 0.049148544669151306, -0.00911376066505909, 0.070506252348423, 0.07252103090286255, 0.05899796262383461, 0.07073133438825607, 0.003932795021682978, 0.04728824645280838, 0.005150745622813702, -0.044427353888750076, -0.046293266117572784, -0.032181259244680405, -0.027698542922735214, -0.024204814806580544, 0.03395915776491165, 0.0007648042519576848, -0.004454880952835083, 0.007856744341552258, 0.024081144481897354, 0.011177758686244488, 0.01590360328555107, 0.006088179536163807, -0.010299728251993656, -0.014429132454097271, 0.018774038180708885, 0.017016761004924774, -0.025711217895150185, 0.004529573023319244, 0.02368091233074665, 0.009326467290520668, -0.028587091714143753, -0.007015781942754984, -0.007051474880427122, 0.011808172799646854, 0.06026069447398186, 0.01051300298422575, -0.027294771745800972, -0.008665850386023521, -0.0170148853212595, 0.03119659796357155, 0.03573809564113617, -0.02687881328165531, -0.0011763360816985369, -0.02837434597313404, 0.025164438411593437, -0.030213749036192894, 0.017245253548026085, 0.03394945710897446, -0.021062778308987617, -0.016613034531474113, -0.011466222815215588, 0.01150976587086916, 0.018192533403635025, 0.011614217422902584, 0.01920563355088234, -0.013559664599597454, 0.0027550896629691124, -0.033376578241586685, 0.010784488171339035, 0.030799489468336105, -0.008840436115860939, -0.01702514849603176, 0.008307546377182007, 0.002421837067231536, 0.015859894454479218, -0.015687579289078712, 0.008576268330216408, 0.016636205837130547, -0.03414314612746239, 0.020654670894145966, -0.00129570288117975, 0.013524447567760944, 0.004532942082732916, -0.020034603774547577, -0.021404815837740898, -0.009154975414276123, 0.024969318881630898, 0.011991579085588455, -0.012795074842870235, 0.035318661481142044, -0.0312546007335186, 0.024649247527122498, 0.0003034085384570062, -0.0024677563924342394, 0.024469440802931786, 0.00020336906891316175, 0.02684924006462097, 0.03119448758661747, -0.004981913138180971, 0.017976216971874237, -0.0236155167222023, 0.0002489671460352838, 0.03287724778056145, -0.02862757444381714, -0.022866548970341682, 0.005783634725958109, 0.026753921061754227, -0.007029158994555473, -0.0019157998031005263], [-0.004044367000460625, -0.011721317656338215, -0.011268403381109238, -0.021634703502058983, -0.03196542337536812, -0.024470802396535873, -0.030737895518541336, -0.019294966012239456, -0.01773819327354431, 0.03537285327911377, 0.017623502761125565, 0.028463130816817284, 0.008292462676763535, -0.03371293470263481, -0.0003789415641222149, 0.03358197584748268, -0.003908162005245686, 0.0192066952586174, -0.005558699835091829, -0.03414134308695793, 0.03540375083684921, -0.01995614729821682, -0.03235062211751938, -0.010123449377715588, 0.013844805769622326, 0.005030772648751736, 0.02614884451031685, -0.017547179013490677, 0.0039307475090026855, -0.02517993189394474, -0.022039644420146942, -0.012161562219262123, 0.007756357081234455, 0.030098477378487587, 0.010949208401143551, 0.03288276493549347, -0.021494649350643158, -0.007972605526447296, -0.010580958798527718, 0.029579320922493935, 0.010938216932117939, 0.01510690525174141, 0.024583622813224792, 0.03156956285238266, 0.0031024254858493805, 0.015198267064988613, 0.006354671902954578, 0.00019532963051460683, -0.016692334786057472, -0.003702883841469884, -0.013408421538770199, 0.030132753774523735, -0.028530122712254524, -0.018381459638476372, 0.01675969921052456, 0.009295105934143066, -0.00020656842389144003, 0.02742447704076767, 0.03043825738132, 0.015080186538398266, -0.02866349183022976, -0.011169265024363995, 0.008797713555395603, -0.026709387078881264, -0.007579934783279896, 0.015266305766999722, 0.037019290030002594, -0.008564082905650139, -0.00879533402621746, -0.015792788937687874, 0.02097433991730213, 0.024796292185783386, -0.011105189099907875, -0.016651339828968048, -0.01628621481359005, -0.008493936620652676, 0.008046912029385567, 0.03585110232234001, -0.0008030859171412885, -0.008289463818073273, 0.020022911950945854, -0.0024391966871917248, -0.016436181962490082, -0.023479420691728592, 0.026539629325270653, -0.0006867306656204164, 0.023714827373623848, -0.0038384541403502226, 0.0056132166646420956, -0.021588994190096855, 0.02111664228141308, 0.03485909104347229, -0.014462609775364399, 0.03979039564728737, 0.06068781763315201, 0.05485771223902702, 0.007363385055214167, 0.02245699241757393, 0.014549480751156807, -0.0240459144115448, 0.01372890267521143, -0.04421616718173027, -0.0019455418223515153, -0.029343007132411003, 0.014727133326232433, 0.04651011526584625, 0.0008780494681559503, 0.025227300822734833, 0.02004057541489601, -0.006052493117749691, -0.016707876697182655, 0.010821334086358547, 0.00874138344079256, -0.0071808816865086555, -0.03131243959069252, -0.019623804837465286, -0.02665811777114868, -0.024703016504645348, 0.04268817976117134, -0.025706397369503975, -0.008646915666759014, 0.055337924510240555, 0.04509447515010834, 0.022803813219070435, -0.0016012070700526237, -0.003724489128217101, 0.012240801006555557, -0.01642732135951519, -0.028189895674586296, -0.028546050190925598, -0.049065060913562775, 0.026460086926817894, 0.023102587088942528, 0.011180280707776546, 0.015936817973852158, -0.028468044474720955, -0.03661581501364708, 0.01632811687886715, -0.00627819262444973, -0.015107900835573673, 0.01959630846977234, -0.035103924572467804, -0.003067206824198365, -0.015184590592980385, 0.012695148587226868, 0.0016238339012488723, 0.01728080026805401, 0.02983951009809971, 0.020804045721888542, -0.022051095962524414, 0.02207351103425026, 0.03599582985043526, 0.05246419087052345, 0.021240098401904106, -0.019067484885454178, 0.011538483202457428, -0.0037393749225884676, -0.029999032616615295, -0.01090098824352026, 0.007710232399404049, 0.0006435689865611494, 0.028096076101064682, -0.0437702015042305, 0.014433021657168865, 0.0008977802935987711, -0.003913217224180698, -0.012674802914261818, -0.0038615185767412186, 0.009639582596719265, 0.0026905820704996586, -0.0026886481791734695, -0.005607547704130411, 0.012746651656925678, 0.025580203160643578, -0.030170872807502747, -0.018560228869318962, -0.012448187917470932, -0.03866327926516533, -0.057467009872198105, -0.039232317358255386, -0.010036928579211235, 0.007681766524910927, -0.06218418478965759, -0.08260694891214371, -0.048950161784887314, -0.03317268565297127, -0.08500399440526962, 0.009622301906347275, -0.008603931404650211, 0.021283473819494247, 0.03310706838965416, -0.015475348569452763, -0.01042224932461977, -0.0025198915973305702, -0.01906021498143673, 0.028281066566705704, -0.014343208633363247, -0.0199483223259449, -0.0316750705242157, 0.03484204784035683, -0.007111642975360155, -0.01620464026927948, -0.04146656394004822, -0.0214582160115242, -0.002301338827237487, -0.03332662209868431, 0.0020996301900595427, -0.04402092471718788, -0.007239250000566244, -0.012693100608885288, -0.09461519867181778, -0.06898432970046997, -0.107224240899086, -0.062124960124492645, 0.07440362870693207, -0.03560197353363037, -0.0289112888276577, -0.022925250232219696, -0.005376094486564398, 0.0010763282189145684, 0.021098459139466286, 0.03381236642599106, -0.00913118664175272, 0.013108660466969013, 0.019054315984249115, -0.032603636384010315, -0.03509295731782913, -0.015860682353377342, 0.05012451484799385, -0.009668066166341305, 0.026411883533000946, 0.0758441761136055, -0.00574593897908926, -0.03968334570527077, -0.04144611954689026, -0.016772795468568802, 0.02512088045477867, -0.05790572240948677, -0.03286682069301605, -0.04481218010187149, -0.03938320279121399, 0.021290428936481476, 0.025402676314115524, 0.017617376521229744, 0.016321737319231033, 0.028782060369849205, 0.022291604429483414, 0.008152504451572895, -0.009701373055577278, -0.005685206037014723, -0.026651525869965553, 0.025649109855294228, -0.03401918336749077, -0.009591965936124325, 0.02821061946451664, 0.045973844826221466, 0.013484091497957706, 0.016405640169978142, 0.009351138956844807, 0.016659479588270187, -0.03317634388804436, -0.0066015711054205894, -0.03462713584303856, -0.015809152275323868, 0.007438285276293755, -0.09586462378501892, -0.06891309469938278, -0.10631905496120453, 0.012652343139052391, -0.01416027918457985, 0.020220980048179626, 0.026849746704101562, 0.09462513774633408, 0.08771302551031113, 0.06898541003465652, 0.056548818945884705, -0.011676304042339325, -0.026499614119529724, -0.024470854550600052, 0.01774912327528, 0.02790606953203678, -0.017637720331549644, -0.01484907977283001, 0.03768008202314377, 0.039048679172992706, 0.02810445800423622, 0.005695136729627848, -0.026194734498858452, 0.034256711602211, -0.003920453600585461, -0.004549510311335325, -0.010830623097717762, -0.027366112917661667, -0.014878574758768082, 0.038416553288698196, -0.08818250894546509, -0.022670166566967964, 0.0028009219095110893, 0.09000793844461441, 0.07614394277334213, 0.12064099311828613, 0.04934382066130638, 0.0708938017487526, 0.08791978657245636, -0.013704918324947357, -0.03843702748417854, 0.003338267095386982, -0.032879672944545746, 0.01108323410153389, -0.0031306734308600426, -0.01232467032968998, 0.06598546355962753, 0.08124493062496185, 0.05346539616584778, -0.015184018760919571, 0.04078851640224457, 0.10625667124986649, 0.07132109254598618, -0.010214374400675297, 0.033605482429265976, 0.005386254284530878, 0.01267297938466072, 0.0464598685503006, 0.029898950830101967, -0.07766430824995041, 0.0054555414244532585, 0.06992964446544647, 0.1176217645406723, 0.11587575078010559, 0.0006715267081744969, 0.048350170254707336, 0.030677612870931625, 0.05014548823237419, 0.034360453486442566, -0.00709110451862216, -0.007415376603603363, -0.021435033529996872, 0.03074953705072403, 0.03747063875198364, 0.05250810831785202, 0.0010226749582216144, 0.024251481518149376, 0.01641237549483776, 0.09788038581609726, 0.04443155229091644, 0.01695907860994339, -0.05118672177195549, 0.036073073744773865, 0.021387768909335136, 0.0546695701777935, 0.12734520435333252, 0.08607590198516846, 0.04325876384973526, 0.049652453511953354, 0.014920741319656372, 0.028649501502513885, 0.06241561844944954, 0.04136451706290245, 0.06752989441156387, 0.04793282970786095, 0.021378306671977043, 0.013360264711081982, 0.018789011985063553, 0.01994045078754425, 0.011829117313027382, 0.0014784382656216621, 0.03668101131916046, 0.018850939348340034, 0.04291771724820137, 0.06250516325235367, 0.02462116628885269, -0.035373471677303314, -0.005658011417835951, -0.03364631161093712, -0.07622736692428589, -0.010347438976168633, -0.033308498561382294, 0.019850002601742744, 0.0967671126127243, 0.052490055561065674, 0.08736871927976608, -0.01826317608356476, 0.07521632313728333, 0.03346366062760353, 0.05062374472618103, 0.019952785223722458, 0.06434910744428635, 0.056606173515319824, 0.04506496340036392, -0.005643363110721111, 0.036875419318675995, -0.025361279025673866, -0.00031400652369484305, -0.01469252910465002, 0.0310132447630167, -0.02075560763478279, -0.022715264931321144, 0.03869717940688133, -0.0030651416163891554, -0.05592378228902817, -0.0043276711367070675, 0.0011623493628576398, -0.01264953799545765, -0.015321245416998863, -0.010158504359424114, 0.09346139430999756, 0.07834174484014511, 0.07987776398658752, 0.024559875950217247, 0.03772871568799019, 0.0440421961247921, -0.01698141358792782, 0.029766708612442017, 0.03262555971741676, 0.03517644479870796, 0.024432318285107613, -0.0021278015337884426, 0.022431807592511177, 0.03187783434987068, -0.013819336891174316, 0.01701519638299942, -0.006911680102348328, -0.012821328826248646, 0.020090166479349136, 0.022143645212054253, 0.02590271830558777, 0.007409507408738136, -0.00794279109686613, 0.0005261169280856848, 0.0035162067506462336, -0.026426440104842186, 0.007318248972296715, 0.0489649660885334, 0.09037656337022781, 0.1580498218536377, 0.08246012032032013, 0.04961399734020233, -0.049643322825431824, 0.017869891598820686, -0.02113022655248642, 0.03865550830960274, -0.041427504271268845, 0.011981220915913582, 0.01564895175397396, -0.0014927440788596869, -0.02304171212017536, -0.03824401646852493, 0.018556224182248116, -0.02448934316635132, -0.011240425519645214, -0.0009010020294226706, 0.025628693401813507, 0.029184171929955482, -0.013196859508752823, -0.021929064765572548, 0.026372171938419342, 0.03325667232275009, 0.026515308767557144, 0.016446614637970924, 0.02409328892827034, 0.0879613608121872, 0.1192459911108017, 0.11489377170801163, 0.05078069120645523, -0.007474516052752733, -0.020601872354745865, -0.03699824586510658, -0.00604220200330019, -0.06972399353981018, -0.019058870151638985, 0.018596693873405457, -0.028543945401906967, -0.009864268824458122, 0.027296118438243866, 0.03140764683485031, -0.034698646515607834, 0.029350802302360535, -0.02428472228348255, 0.029679778963327408, 0.00815294124186039, 0.03167964145541191, 0.009158456698060036, -0.03979751467704773, 0.03301024064421654, 0.01483901310712099, -0.03164268285036087, -0.001510143862105906, 0.09493593126535416, 0.09744375199079514, 0.21669545769691467, 0.11270684748888016, -0.060573823750019073, -0.0682225450873375, -0.050433214753866196, -0.042320605367422104, -0.051224395632743835, -0.03344365209341049, 0.020522674545645714, -0.00511964363977313, -0.004961504600942135, -0.010623420588672161, 0.025289170444011688, -0.029627060517668724, -0.014674478210508823, -0.013077018782496452, -0.02503093332052231, -0.0002912560012191534, -0.02439313754439354, -0.017113126814365387, 0.02324230782687664, -0.02710985392332077, 0.0036987480707466602, -0.03329862654209137, 0.012555978260934353, 0.0475490540266037, 0.09483948349952698, 0.1381242871284485, 0.1402347981929779, 0.012091794982552528, -0.0048096622340381145, -0.06502339988946915, -0.054344628006219864, -0.03036382421851158, -0.0681285411119461, -0.04353487864136696, -0.023551931604743004, 0.0009171334677375853, -0.02231275849044323, -0.027874760329723358, -0.022693801671266556, 0.004698310047388077, -0.027752868831157684, 0.0037250022869557142, 0.013103888370096684, -0.009281966835260391, -0.01290745660662651, -0.04573371633887291, -0.04266319423913956, 0.0018710249569267035, -0.03551943227648735, -0.026287613436579704, 0.014505399391055107, 0.0763995498418808, 0.03189337998628616, 0.08214767277240753, 0.054681502282619476, 0.006397783290594816, -0.032152608036994934, -0.035099469125270844, 0.016343826428055763, -0.09897886216640472, -0.009786330163478851, 0.021766619756817818, -0.06252309679985046, -0.007236080709844828, -0.014249895699322224, -0.0016531265573576093, 0.00972113199532032, -0.035303644835948944, -0.025111733004450798, -0.010291551239788532, 0.023432571440935135, 0.020523350685834885, -0.004200655035674572, -0.025997649878263474, -0.06835343688726425, -0.027084406465291977, 0.03748919814825058, 0.02153896540403366, -0.036455582827329636, 0.0533662885427475, 0.011041794903576374, -0.0029245479963719845, 0.047779202461242676, -0.000807418255135417, 0.015386875718832016, -0.08646538108587265, -0.06485047936439514, -0.04405731335282326, -0.04472576454281807, 0.008148030377924442, -0.012237053364515305, -0.03367028757929802, -0.042283739894628525, -0.050419922918081284, -0.023638812825083733, 0.029222235083580017, -0.033986322581768036, -0.007194934878498316, 0.017972653731703758, 0.013568186201155186, -0.03595942631363869, 0.004815019201487303, -0.0825197696685791, -0.017240557819604874, -0.005824242252856493, 0.0014372157165780663, 0.021504918113350868, 0.04741010442376137, 0.029987137764692307, 0.04610590264201164, 0.09196395426988602, 0.04756702110171318, -0.008543484844267368, -0.03265240043401718, -0.03880154341459274, 0.03338838741183281, 0.057031769305467606, 0.005830890964716673, -0.012381396256387234, 0.015155687928199768, -0.005706409458070993, -0.03471484035253525, 0.021486954763531685, -0.0002511591010261327, 0.021524950861930847, -0.01676829904317856, 0.03299662843346596, 0.01906586065888405, 0.016659080982208252, -0.020669272169470787, -0.018214888870716095, 0.015117119066417217, 0.035301145166158676, -0.05210913345217705, 0.028165176510810852, -0.015068317763507366, -0.031049229204654694, 0.058152880519628525, 0.03401845693588257, -0.018284698948264122, 0.048658739775419235, -0.004893171135336161, 0.0059699104167521, -0.012350520119071007, 0.037401843816041946, 0.027954760938882828, -0.02024088427424431, 0.007089386228471994, -0.02491074800491333, -0.013107484206557274, -0.009440196678042412, 0.008724771440029144, 0.0028341144789010286, -0.026193058118224144, -0.026064345613121986, 0.024837788194417953, 0.00809429120272398, 0.006029736250638962, -0.03977349027991295, 0.017492568120360374, -0.05298468470573425, -0.058240797370672226, -0.08043494820594788, -0.050325509160757065, -0.011444336734712124, -0.02267448604106903, 0.018219241872429848, 0.008884407579898834, -0.030037065967917442, 0.034472301602363586, 0.05266837030649185, 0.05509357526898384, -0.019754663109779358, 0.00019076376338489354, -0.03032044507563114, -0.034004226326942444, -0.0029746710788458586, 0.01494224276393652, -0.03128884360194206, 0.01743050292134285, -0.026290591806173325, -0.01639007404446602, 0.02093915082514286, 0.012661084532737732, 0.03170495480298996, -0.021792855113744736, -0.034733422100543976, -0.05332113802433014, -0.06835559010505676, -0.021528204903006554, -0.055460523813962936, -0.025653507560491562, -0.02132611908018589, -0.041520826518535614, -0.009151683188974857, -0.014393976889550686, 0.03831133991479874, 0.015275326557457447, 0.033753421157598495, 0.05654972419142723, 0.021435465663671494, -0.04405147209763527, -0.02541958913207054, -0.052749838680028915, 0.004188116639852524, -0.033199649304151535, 0.004296202212572098, -0.02249860391020775, -0.03505207598209381, 0.012008259072899818, 0.02832448109984398, 0.007235588040202856, -0.006991657894104719, 0.01583046466112137, -0.011379534378647804, -0.02717629447579384, 4.4952204916626215e-05, 0.03169989213347435, -0.0028895551804453135, 0.04235827550292015, 0.02213127538561821, -0.015387173742055893, -0.03376220539212227, -0.02185981534421444, 0.04248463362455368, -0.012549187988042831, 0.0027979391161352396, 0.002160442527383566, -0.021789580583572388, -0.051286451518535614, -0.020060712471604347, -0.006398516241461039, 0.023574449121952057, 0.010528407990932465, -0.025316596031188965, -0.029856817796826363, -0.015135195106267929, 0.022181017324328423, 0.006498039234429598, 0.00837024673819542, -0.018355991691350937, -0.022490384057164192, -0.01629379391670227, -0.03372881934046745, -0.031171858310699463, 0.04318481683731079, -0.019308675080537796, 0.00942524429410696, 0.03102826327085495, 0.014243821613490582, -0.01684444770216942, 0.0033310332801193, -0.03505762293934822, -0.007801203988492489, -0.01296024676412344, -0.01581558771431446, -0.03132757544517517, -0.02259349636733532, -0.009779847227036953, -0.013138605281710625, -0.017951099202036858, -0.008303068578243256, 0.026365550234913826, -0.020915381610393524, -0.011620969511568546, -0.029975751414895058, 0.0298856683075428, -0.030632492154836655, 0.03289153426885605, -0.0337861031293869, 0.007657746784389019, -0.01915876194834709, -0.02416420355439186, -0.008919819258153439, -0.013358821161091328, -0.02509261481463909, 0.011882919818162918, -0.030570905655622482, 0.006190198007971048, -0.009526406414806843, 0.034873783588409424, 0.03983898460865021, -0.0031732695642858744, -0.01168357115238905, 0.022764654830098152, -0.03677267208695412, 0.032073598355054855, 0.004105845931917429, 0.003083118237555027, -0.022492665797472, 0.014611734077334404, 0.015102697536349297, -0.024184998124837875], [-0.016870100051164627, -0.00715789245441556, -0.0022967332042753696, -0.022889120504260063, 0.01843821257352829, 0.030433306470513344, -0.012491677887737751, -0.016697246581315994, -0.026118440553545952, -0.027411121875047684, -0.02791377529501915, 0.005284288432449102, -0.02926584705710411, -0.015247653238475323, -0.029320236295461655, -0.00736395874992013, 0.021449260413646698, 0.020046928897500038, 0.0018530531087890267, -0.005931556690484285, 0.012102212756872177, 0.004439792595803738, -0.021411534398794174, -0.02879169210791588, -0.026548203080892563, -0.021979643031954765, -0.019154945388436317, -0.025678163394331932, 0.0143726896494627, -0.018825119361281395, -0.021764833480119705, 0.009710120968520641, -0.022946754470467567, -0.03277881070971489, -0.003552007954567671, 0.028204666450619698, 0.02392435073852539, -0.0029316649306565523, 0.003278923686593771, -0.01357639767229557, -0.007931009866297245, -0.025958122685551643, 0.029185352846980095, -0.03524322062730789, 0.003954208455979824, -0.020126231014728546, -0.008314114063978195, 0.021808989346027374, -0.029351959004998207, 0.008501354604959488, 0.017768198624253273, -0.023373425006866455, -0.01997440680861473, -0.021616971120238304, -0.017689932137727737, 0.00398652907460928, 0.009881138801574707, 0.03474443405866623, -0.011133266612887383, -0.03205830976366997, -0.033886585384607315, -0.028392702341079712, 0.025584258139133453, 0.002959620440378785, 0.0013663758290931582, -0.027791986241936684, 0.01257922500371933, 0.0030262169893831015, -0.053152162581682205, -0.050726477056741714, -0.0642295852303505, 0.013802861794829369, -0.021794818341732025, -0.013085948303341866, -0.014892608858644962, 0.003283752826973796, 0.009300317615270615, 0.010762856341898441, -0.016304146498441696, 0.01676260493695736, -0.02574329636991024, -0.0018824219005182385, -0.03236699849367142, -0.018326960504055023, -0.032301463186740875, 0.00829248409718275, -0.007088095415383577, -0.01540790218859911, 0.001956632826477289, -0.03257123753428459, -0.04322274774312973, -0.001965433591976762, -0.00893269944936037, -0.0322105847299099, -0.04266632720828056, -0.007064132485538721, -0.06812340766191483, -0.039074234664440155, -0.05967577174305916, -0.07195626944303513, -0.03909857198596001, -0.05314962565898895, -0.011963934637606144, -0.0006564705399796367, 0.009388194419443607, 0.01372918114066124, 0.03571794554591179, 0.02551409974694252, -0.03557436168193817, -0.009131799452006817, 0.012972437776625156, 0.0172737929970026, 0.007756327278912067, -0.012086660601198673, -0.007174979895353317, -0.0004136815550737083, -0.02940867282450199, -0.011369042098522186, -0.00912867859005928, -0.04420894756913185, -0.052493974566459656, -0.12258370220661163, -0.032352615147829056, -0.021791234612464905, -0.0907490998506546, -0.11498899012804031, -0.1392279863357544, -0.04036136716604233, -0.017097190022468567, 0.005533786024898291, -0.0385889858007431, -0.018908444792032242, -0.06393935531377792, -0.0070458222180604935, 0.02719595469534397, 0.05830810219049454, 0.050021909177303314, 0.03027586080133915, -0.009566009975969791, -0.003080267459154129, 0.006513536442071199, 0.019173095002770424, 0.015346850268542767, -0.008911371231079102, -0.012063317000865936, 0.032312385737895966, -0.013846633955836296, 0.0036042064893990755, -0.04683299362659454, -0.021907947957515717, -0.06267451494932175, 0.030331240966916084, 0.016055166721343994, -0.0291731059551239, 0.0056342012248933315, -0.0660158321261406, -0.07473336905241013, -0.035477008670568466, -0.07739435881376266, -0.05464059114456177, -0.05513078346848488, 0.0018245766405016184, -0.03761247172951698, -0.027545051649212837, 0.033717330545186996, -0.006168566178530455, 0.0306447334587574, -0.027417873963713646, 0.02709806151688099, 0.004229770507663488, 0.01984419673681259, 0.02942110039293766, 0.03997208923101425, 0.03332973271608353, 0.011988346464931965, -0.024275008589029312, -0.033171962946653366, 0.05821523442864418, 0.203080415725708, 0.08372198045253754, 0.024436628445982933, -0.024188732728362083, -0.04247608408331871, 0.02477473020553589, -0.06173790991306305, -0.03651207685470581, 0.0691099464893341, 0.02986370027065277, 0.007243765983730555, -0.003264543367549777, 0.08752693235874176, 0.08293238282203674, 0.03272576257586479, -0.035631123930215836, 0.019415488466620445, -0.03241541236639023, -0.02446690760552883, 0.034887347370386124, -0.003963831812143326, -0.008457668125629425, -0.03830096870660782, -0.03498537093400955, 0.03510626405477524, -0.025028005242347717, -0.005788558628410101, 0.05155409127473831, 0.07389634847640991, 0.03136623650789261, 0.11796053498983383, 0.11634522676467896, -0.025762299075722694, 0.015418066643178463, 0.01932985894382, 0.02717575989663601, 0.08295346796512604, 0.07755475491285324, 0.025103799998760223, 0.041336674243211746, 0.04763578996062279, 0.0950932502746582, 0.014063987880945206, -0.022706352174282074, -0.035446662455797195, 0.031155060976743698, -0.036110278218984604, 0.0017220606096088886, 0.0268582571297884, -0.007530056405812502, 0.019309721887111664, 0.014901368878781796, 0.009383541531860828, 0.01827058009803295, 0.10549856722354889, -0.022637546062469482, -0.007006374653428793, 0.054367467761039734, 0.018696334213018417, 0.10127780586481094, 0.05503704026341438, 0.014434950426220894, 0.004016732797026634, 0.04071010276675224, 0.06375204771757126, -0.05762868374586105, 0.04663386940956116, 0.018346399068832397, 0.143916055560112, 0.06987574696540833, 0.07624919712543488, 0.03245388716459274, 0.027327124029397964, 0.0161332618445158, 0.035104766488075256, 0.014981480315327644, 0.022100796923041344, 0.006163172423839569, -0.02602723054587841, -0.009537402540445328, 0.0708148181438446, 0.03469981625676155, 0.06655015051364899, 0.012490053661167622, -0.08021696656942368, -0.05500447377562523, 0.04327809810638428, 0.015585536137223244, 0.010510758496820927, 0.05250769108533859, 0.020011644810438156, 0.08390802145004272, -0.08157189190387726, -0.10652659833431244, 0.08014357835054398, 0.07170876115560532, 0.1079896092414856, 0.0591949038207531, 0.009062481112778187, 0.006260623224079609, 0.040575169026851654, -0.01914692297577858, -0.015148956328630447, -0.02148129791021347, 0.022284669801592827, 0.05614439770579338, 0.011278518475592136, 0.06919662654399872, 0.112354576587677, 0.029204389080405235, 0.0971391573548317, 0.09421198815107346, -0.027252472937107086, 0.01008165255188942, 0.006507368292659521, -0.036145780235528946, -0.06643801927566528, -0.09884876012802124, -0.058682940900325775, -0.13002006709575653, -0.10038561373949051, -0.10075391829013824, 0.05391305312514305, 0.01818292960524559, 0.1084316149353981, 0.0005293611320666969, -0.010590361431241035, 0.010192321613430977, -0.026706434786319733, -0.010637180879712105, 0.008207331411540508, 0.01600548066198826, 0.020126275718212128, 0.03158419206738472, 0.04828180372714996, 0.09212755411863327, 0.07241260260343552, 0.0489797480404377, 0.18695437908172607, 0.08723463118076324, 0.025443710386753082, -0.011690097860991955, -0.05490037053823471, -0.12479820102453232, -0.10752956569194794, -0.19502151012420654, -0.1368880718946457, -0.09741588681936264, -0.08450296521186829, 0.03032071143388748, -0.004134700633585453, 0.06616479158401489, 0.13162945210933685, 0.004196162335574627, -0.002159607131034136, 0.042210157960653305, 0.026931850239634514, 0.01570557802915573, -0.007761677727103233, -0.008375603705644608, 0.035173214972019196, 0.02048923261463642, 0.10239990055561066, 0.11237775534391403, 0.04852505400776863, 0.00929700955748558, 0.036890868097543716, -0.10710499435663223, -0.022216111421585083, -0.08355707675218582, -0.10190743952989578, -0.042361121624708176, -0.1151900365948677, -0.053984250873327255, -0.12311369180679321, -0.10426265001296997, 0.10061761736869812, 0.08748418092727661, 0.06205878034234047, 0.07201540470123291, 0.06641332805156708, 0.024466507136821747, -0.002944084582850337, 0.04518107697367668, 0.04127676039934158, 0.02436509169638157, 0.030661433935165405, 0.031025344505906105, 0.03624705970287323, -0.013887178152799606, 0.03557060658931732, 0.05609140917658806, 0.022520508617162704, -0.01873202435672283, -0.001083223964087665, 0.0011812184238806367, 0.06446131318807602, -0.020490990951657295, -0.09766928106546402, -0.014542220160365105, -0.043729908764362335, 0.010149090550839901, -0.03350688889622688, 0.031032424420118332, 0.07351914048194885, 0.031348828226327896, 0.0797002911567688, 0.10507617145776749, 0.018157150596380234, -0.044598039239645004, -0.03506091609597206, 0.021748900413513184, 0.01995992660522461, -0.0017418351490050554, -0.010349888354539871, -0.022530103102326393, -0.031624723225831985, 0.011814686469733715, 0.0327276736497879, 0.012402272783219814, -0.03611549362540245, 0.0008343921508640051, 0.06968987733125687, 0.04307283088564873, 0.0896226167678833, 0.02045349031686783, 0.0064517841674387455, 0.06239661946892738, 0.016200829297304153, 0.0098417978733778, -0.036866445094347, 0.0826699435710907, 0.048069752752780914, 0.11351537704467773, 0.04236415773630142, -0.053357865661382675, -0.06212534010410309, -0.030618328601121902, -0.0690559670329094, -0.03495429828763008, -0.003097878536209464, -0.010092676617205143, -0.0012837637914344668, -0.02085382305085659, -0.023417754098773003, 0.011895298026502132, -0.06699810177087784, -0.08179808408021927, -0.033397745341062546, -0.09401823580265045, -0.020920537412166595, 0.05071059986948967, 0.16130051016807556, 0.15458613634109497, 0.12859845161437988, 0.14355812966823578, 0.13134682178497314, 0.15261662006378174, 0.017221398651599884, 0.13211366534233093, 0.060724202543497086, -0.022404083982110023, 0.018937095999717712, -0.011949922889471054, 0.07428042590618134, -0.01658293791115284, -0.06575734913349152, -0.06692739576101303, -0.03548293560743332, -0.02374657243490219, -0.0007539505022577941, -0.03284432366490364, 0.000833364378195256, -0.012807461433112621, -0.04899769648909569, -0.11145228147506714, -0.07023532688617706, -0.10234665125608444, 0.0011553008807823062, 0.042318195104599, 0.1348118633031845, 0.09017074853181839, 0.18849310278892517, 0.2689407765865326, 0.14535075426101685, 0.15970557928085327, -0.056198518723249435, 0.025492610409855843, 0.07973300665616989, -0.00781593844294548, 0.06365370005369186, 0.018065812066197395, 0.023075947538018227, -0.035258788615465164, -0.05356217548251152, -0.030271369963884354, -0.028145313262939453, -0.002220846014097333, -0.028826123103499413, 0.031661905348300934, 0.021183433011174202, -0.05357006937265396, -0.06292835623025894, -0.15252037346363068, -0.07164984196424484, -0.06266830861568451, -0.08512825518846512, -0.09054267406463623, -0.03456662967801094, 0.03171491250395775, 0.07430029660463333, 0.16962014138698578, 0.01711321249604225, 0.05714378505945206, -0.057042185217142105, -0.01192094013094902, -0.03711961209774017, -0.058998752385377884, 0.021780146285891533, -0.008815063163638115, -0.02410297282040119, -0.08423841744661331, -0.01900695264339447, 0.011647950857877731, -0.03921511396765709, -0.005933744367212057, 0.0019164665136486292, 0.017877599224448204, 0.004610327072441578, -0.015645794570446014, -0.12235093861818314, -0.10089638829231262, -0.10474971681833267, -0.0813186913728714, -0.09924238920211792, -0.19013318419456482, -0.05464957281947136, -0.00743150943890214, 0.004022672772407532, 0.03910272195935249, -0.04581156000494957, 0.0004301760927774012, -0.06081262603402138, -0.05235997959971428, -0.14234772324562073, -0.12326547503471375, 0.029832445085048676, -0.0684191957116127, -0.13500189781188965, -0.12467126548290253, -0.08124058693647385, 0.003980682231485844, 0.005324013065546751, 0.0005246094078756869, -0.033380862325429916, -0.016986794769763947, 0.03392458334565163, 0.004531752783805132, -0.03783341497182846, -0.14347010850906372, -0.1306387484073639, -0.07984262704849243, -0.15196095407009125, -0.14172065258026123, -0.10739403963088989, -0.15038682520389557, -0.126536563038826, -0.060225486755371094, -0.020146654918789864, -0.016169430688023567, -0.07460752874612808, -0.031093329191207886, -0.05201154574751854, -0.026606621220707893, -0.11427959054708481, -0.11923760920763016, -0.11878077685832977, -0.11922787874937057, -0.09686543792486191, -0.04045035317540169, -0.02067009173333645, 0.0019070820417255163, 0.030072465538978577, -0.01588255539536476, 0.022238703444600105, -0.02950219437479973, -0.044997312128543854, -0.06445668637752533, -0.09644434601068497, -0.05166858062148094, -0.017581764608621597, -0.053312428295612335, -0.06831483542919159, -0.11618129163980484, -0.06479062139987946, 0.03997486084699631, -1.6260251868516207e-05, 0.028088806197047234, -0.034457769244909286, 0.00744602782651782, -0.01548753771930933, -0.045313868671655655, -0.12375497072935104, -0.07735878229141235, -0.06830581277608871, -0.021469170227646828, -0.0294179730117321, 0.011982083320617676, -0.011971695348620415, 0.03246115893125534, 0.029206903651356697, 0.010431239381432533, 0.021076837554574013, 0.007617856841534376, 0.027513522654771805, -0.015702899545431137, -0.019620826467871666, 0.018966156989336014, 0.0011233119294047356, -0.0019224220886826515, 0.05835563689470291, 0.02731388993561268, 0.07697892189025879, 0.00017812322766985744, -0.037065163254737854, 0.07394300401210785, 0.03190714120864868, 0.023890407755970955, -0.07024354487657547, -0.09636770933866501, -0.1327015608549118, -0.026723839342594147, -0.05542147532105446, -0.0015864280285313725, 0.004276069346815348, -0.015818582847714424, -0.049911919981241226, 